Language model created by QuickLM on Tue May  3 14:03:50 EDT 2011
Copyright (c) 1996-2010 Carnegie Mellon University and Alexander I. Rudnicky

The model is in standard ARPA format, designed by Doug Paul while he was at MITRE.

The code that was used to produce this language model is available in Open Source.
Please visit http://www.speech.cs.cmu.edu/tools/ for more information

The (fixed) discount mass is 0.5. The backoffs are computed using the ratio method.
This model based on a corpus of 11 sentences and 118 words

\data\
ngram 1=118
ngram 2=180
ngram 3=170

\1-grams:
-2.5843 "A -0.2999
-2.5843 "AMOUNTS -0.2953
-2.5843 "THE -0.2999
-2.5843 (SARTRE -0.2999
-1.5429 </s> -0.3010
-1.5429 <s> -0.2802
-2.5843 A -0.2999
-2.5843 ABOVE -0.2999
-2.5843 ABSTRACT -0.2942
-2.2833 AN -0.2988
-1.8062 AND -0.2930
-2.5843 ANYTHING -0.2988
-2.5843 APPROACH -0.2988
-2.2833 ARE -0.2988
-2.5843 ARE‚ -0.2999
-2.5843 ART -0.2988
-1.9823 AS -0.2942
-2.5843 ASPECTS -0.2988
-2.5843 AUTONOMOUS -0.2942
-2.5843 BE -0.2907
-2.5843 BECOME -0.2999
-2.5843 BEING -0.2999
-2.5843 BLOCKHOUSE.") -0.2884
-2.5843 BORED. -0.2884
-2.5843 BOREDOM -0.2976
-2.5843 BOUNDARIES -0.2919
-2.2833 BUT -0.2953
-2.5843 CASE, -0.2988
-2.5843 CLAIM -0.2965
-2.5843 COMMUNICATE -0.2999
-2.5843 CONFINES -0.2919
-2.5843 CONVENTIONAL -0.2999
-2.5843 DENIES -0.2907
-2.5843 DIFFICULT -0.2953
-2.5843 DIMENSIONS -0.2919
-2.5843 ENOUGH. -0.2884
-2.5843 EXIST -0.2965
-2.5843 EXISTENCE -0.2919
-2.5843 EXISTS." -0.2884
-2.5843 EXTENSION. -0.2884
-2.5843 FLAT -0.2942
-1.9823 FOR -0.2872
-2.5843 FORCED -0.2953
-2.5843 GIVEN -0.2976
-2.5843 HE -0.2999
-2.5843 HIGHLY -0.2999
-2.5843 HIS -0.2999
-2.5843 IF -0.2976
-2.5843 IMPREGNABLE -0.2999
-2.2833 IN -0.2976
-2.5843 INDIFFERENT. -0.2884
-2.5843 INDIVIDUALS -0.2942
-1.9823 IS -0.2861
-2.5843 IT -0.2999
-2.5843 ITS -0.2999
-2.5843 JUSTIFIABLY, -0.2965
-2.2833 LIKE -0.2896
-2.5843 LIKEWISE -0.2999
-2.5843 LOSE -0.2988
-2.5843 MADMAN -0.2999
-2.5843 MANIPULATION -0.2919
-2.1072 MAY -0.2976
-2.5843 ME -0.2999
-2.5843 MEANINGS -0.2965
-2.5843 MIND. -0.2884
-2.5843 MISSES. -0.2884
-2.5843 NONREFERENTIAL. -0.2884
-2.2833 NOT -0.2953
-2.5843 NOTHING -0.2999
-1.6812 OF -0.2814
-2.2833 OR -0.2976
-2.5843 ORDERED -0.2999
-2.5843 OTHER -0.2999
-2.5843 OTHERS -0.2976
-2.2833 OUTSIDE -0.2896
-2.5843 OWN -0.2999
-2.5843 POETRY -0.2988
-2.5843 POWER -0.2988
-2.5843 PROBABLY -0.2999
-2.5843 PRODUCT -0.2919
-2.5843 QUALITIES -0.2919
-2.5843 QUALITY -0.2953
-2.5843 RANDOM -0.2999
-2.2833 REALITY -0.2953
-2.5843 REEF," -0.2965
-2.5843 REFERS -0.2953
-2.5843 SACRED -0.2988
-2.5843 SAY, -0.2942
-2.5843 SAYING -0.2965
-2.5843 SCHOPENHAUER -0.2999
-2.5843 SELF-CONTAINED -0.2942
-2.5843 SELF-ENCLOSED -0.2999
-2.5843 SERIAL -0.2999
-2.5843 SHUT -0.2999
-2.5843 SOLIPSISM -0.2965
-2.2833 SOLIPSIST -0.2942
-2.2833 SOME -0.2965
-2.5843 SPEAKS -0.2919
-2.5843 STATIC. -0.2884
-2.5843 STILL -0.2999
-1.9823 THAT -0.2942
-1.6301 THE -0.2907
-2.2833 THEIR -0.2988
-2.5843 THERE -0.2965
-2.1072 THEY -0.2965
-2.5843 THINGS -0.2988
-2.1072 THIS -0.2919
-2.5843 THOSE -0.2999
-2.5843 THOUGHT, -0.2907
-2.5843 THOUGHTS -0.2965
-1.8854 TO -0.2930
-2.5843 UP -0.2988
-2.5843 USING -0.2999
-2.5843 VIEW -0.2999
-2.5843 VIEWED -0.2999
-2.5843 WITHIN -0.2907
-2.5843 WORDS. -0.2884
-2.5843 WORK -0.2965

\2-grams:
-0.3010 "A MADMAN 0.0000
-0.3010 "AMOUNTS TO -0.2553
-0.3010 "THE REEF," 0.0000
-0.3010 (SARTRE REFERS 0.0000
-1.3424 <s> (SARTRE 0.0000
-1.3424 <s> BUT -0.1761
-1.3424 <s> FOR -0.2430
-1.3424 <s> HE 0.0000
-1.3424 <s> IF 0.0000
-1.3424 <s> OTHERS 0.0000
-1.3424 <s> SCHOPENHAUER 0.0000
-1.3424 <s> SERIAL 0.0000
-1.3424 <s> SOME -0.1761
-1.3424 <s> THEY -0.2218
-1.3424 <s> VIEWED 0.0000
-0.3010 A POETRY 0.0000
-0.3010 ABOVE MISSES. 0.0000
-0.3010 ABSTRACT AND -0.2632
-0.6021 AN APPROACH 0.0000
-0.6021 AN IMPREGNABLE 0.0000
-1.0792 AND ARE -0.1761
-1.0792 AND INDIFFERENT. 0.0000
-1.0792 AND JUSTIFIABLY, 0.0000
-1.0792 AND NONREFERENTIAL. 0.0000
-1.0792 AND ORDERED 0.0000
-1.0792 AND STATIC. 0.0000
-0.3010 ANYTHING OUTSIDE -0.1761
-0.3010 APPROACH LIKE -0.1761
-0.6021 ARE DIFFICULT 0.0000
-0.6021 ARE STILL 0.0000
-0.3010 ARE‚ AUTONOMOUS 0.0000
-0.3010 ART IN -0.1761
-0.9031 AS "A 0.0000
-0.9031 AS "THE 0.0000
-0.9031 AS SACRED 0.0000
-0.9031 AS THEY -0.2218
-0.3010 ASPECTS LIKE -0.1761
-0.3010 AUTONOMOUS AND -0.2632
-0.3010 BE THE -0.2762
-0.3010 BECOME FLAT 0.0000
-0.3010 BEING FORCED 0.0000
-0.3010 BLOCKHOUSE.") </s> -0.3010
-0.3010 BORED. </s> -0.3010
-0.3010 BOREDOM MAY -0.2218
-0.3010 BOUNDARIES OF -0.2730
-0.6021 BUT AS -0.2430
-0.6021 BUT ASPECTS 0.0000
-0.3010 CASE, THEIR -0.1761
-0.3010 CLAIM THAT -0.2430
-0.3010 COMMUNICATE USING 0.0000
-0.3010 CONFINES OF -0.2730
-0.3010 CONVENTIONAL MEANINGS 0.0000
-0.3010 DENIES THE -0.2762
-0.3010 DIFFICULT TO -0.2553
-0.3010 DIMENSIONS OF -0.2730
-0.3010 ENOUGH. </s> -0.3010
-0.3010 EXIST FOR -0.2430
-0.3010 EXISTENCE OF -0.2730
-0.3010 EXISTS." </s> -0.3010
-0.3010 EXTENSION. </s> -0.3010
-0.3010 FLAT AND -0.2632
-0.9031 FOR INDIVIDUALS 0.0000
-0.9031 FOR IT 0.0000
-0.9031 FOR THE -0.2499
-0.9031 FOR WORDS. 0.0000
-0.3010 FORCED TO -0.2553
-0.3010 GIVEN THIS -0.2218
-0.3010 HE DENIES 0.0000
-0.3010 HIGHLY ABSTRACT 0.0000
-0.3010 HIS OWN 0.0000
-0.3010 IF THIS -0.2218
-0.3010 IMPREGNABLE BLOCKHOUSE.") 0.0000
-0.6021 IN AN -0.1761
-0.6021 IN ITS 0.0000
-0.3010 INDIFFERENT. </s> -0.3010
-0.3010 INDIVIDUALS AND -0.2632
-0.9031 IS A 0.0000
-0.9031 IS LIKEWISE 0.0000
-0.9031 IS NOT -0.1761
-0.9031 IS THE -0.2762
-0.3010 IT "AMOUNTS 0.0000
-0.3010 ITS HIGHLY 0.0000
-0.3010 JUSTIFIABLY, THAT -0.2430
-0.6021 LIKE THE -0.2762
-0.6021 LIKE THOSE 0.0000
-0.3010 LIKEWISE SELF-CONTAINED 0.0000
-0.3010 LOSE THEIR -0.1761
-0.3010 MADMAN SHUT 0.0000
-0.3010 MANIPULATION OF -0.2730
-0.7782 MAY BE 0.0000
-0.7782 MAY CLAIM 0.0000
-0.7782 MAY SAY, 0.0000
-0.3010 ME NOTHING 0.0000
-0.3010 MEANINGS FOR -0.2430
-0.3010 MIND. </s> -0.3010
-0.3010 MISSES. </s> -0.3010
-0.3010 NONREFERENTIAL. </s> -0.3010
-0.6021 NOT AS -0.2430
-0.6021 NOT ENOUGH. 0.0000
-0.3010 NOTHING EXISTS." 0.0000
-1.2041 OF ANYTHING 0.0000
-1.2041 OF BEING 0.0000
-1.2041 OF EXTENSION. 0.0000
-1.2041 OF HIS 0.0000
-1.2041 OF REALITY -0.1761
-1.2041 OF THE -0.2499
-1.2041 OF THOUGHT, 0.0000
-1.2041 OF THOUGHTS 0.0000
-0.6021 OR POWER 0.0000
-0.6021 OR SOME -0.1761
-0.3010 ORDERED MANIPULATION 0.0000
-0.3010 OTHER QUALITY 0.0000
-0.3010 OTHERS MAY -0.2218
-0.6021 OUTSIDE ME 0.0000
-0.6021 OUTSIDE THE -0.2762
-0.3010 OWN MIND. 0.0000
-0.3010 POETRY OR -0.1761
-0.3010 POWER OR -0.1761
-0.3010 PROBABLY ARE‚ 0.0000
-0.3010 PRODUCT OF -0.2730
-0.3010 QUALITIES OF -0.2730
-0.3010 QUALITY TO -0.2553
-0.3010 RANDOM DIMENSIONS 0.0000
-0.6021 REALITY IS -0.2430
-0.6021 REALITY LOSE 0.0000
-0.3010 REEF," FOR -0.2430
-0.3010 REFERS TO -0.2553
-0.3010 SACRED BUT -0.1761
-0.3010 SAY, AND -0.2632
-0.3010 SAYING THAT -0.2430
-0.3010 SCHOPENHAUER SPEAKS 0.0000
-0.3010 SELF-CONTAINED AND -0.2632
-0.3010 SELF-ENCLOSED CONFINES 0.0000
-0.3010 SERIAL ART 0.0000
-0.3010 SHUT UP 0.0000
-0.3010 SOLIPSISM AS -0.2430
-0.6021 SOLIPSIST AS -0.2430
-0.6021 SOLIPSIST REALITY -0.1761
-0.6021 SOME MAY -0.2218
-0.6021 SOME OTHER 0.0000
-0.3010 SPEAKS OF -0.2730
-0.3010 STATIC. </s> -0.3010
-0.3010 STILL BORED. 0.0000
-0.9031 THAT AN -0.1761
-0.9031 THAT GIVEN 0.0000
-0.9031 THAT OUTSIDE -0.1761
-0.9031 THAT THERE 0.0000
-1.2553 THE ABOVE 0.0000
-1.2553 THE BOUNDARIES 0.0000
-1.2553 THE CASE, 0.0000
-1.2553 THE EXISTENCE 0.0000
-1.2553 THE PRODUCT 0.0000
-1.2553 THE RANDOM 0.0000
-1.2553 THE SELF-ENCLOSED 0.0000
-0.9542 THE SOLIPSIST 0.0000
-0.6021 THEIR BOREDOM 0.0000
-0.6021 THEIR QUALITIES 0.0000
-0.3010 THERE IS -0.2430
-0.7782 THEY ARE -0.1761
-0.7782 THEY BECOME 0.0000
-0.7782 THEY PROBABLY 0.0000
-0.3010 THINGS NOT -0.1761
-0.7782 THIS IS -0.2430
-0.7782 THIS THEY -0.2218
-0.7782 THIS WORK 0.0000
-0.3010 THOSE EXIST 0.0000
-0.3010 THOUGHT, THE -0.2762
-0.3010 THOUGHTS IS -0.2430
-1.0000 TO COMMUNICATE 0.0000
-1.0000 TO SAYING 0.0000
-1.0000 TO SOLIPSISM 0.0000
-1.0000 TO THIS -0.2218
-1.0000 TO VIEW 0.0000
-0.3010 UP IN -0.1761
-0.3010 USING CONVENTIONAL 0.0000
-0.3010 VIEW THINGS 0.0000
-0.3010 VIEWED WITHIN 0.0000
-0.3010 WITHIN THE -0.2762
-0.3010 WORDS. </s> -0.3010
-0.3010 WORK THAT -0.2430

\3-grams:
-0.3010 "A MADMAN SHUT
-0.3010 "AMOUNTS TO SAYING
-0.3010 "THE REEF," FOR
-0.3010 (SARTRE REFERS TO
-0.3010 <s> (SARTRE REFERS
-0.3010 <s> BUT ASPECTS
-0.3010 <s> FOR THE
-0.3010 <s> HE DENIES
-0.3010 <s> IF THIS
-0.3010 <s> OTHERS MAY
-0.3010 <s> SCHOPENHAUER SPEAKS
-0.3010 <s> SERIAL ART
-0.3010 <s> SOME MAY
-0.3010 <s> THEY BECOME
-0.3010 <s> VIEWED WITHIN
-0.3010 A POETRY OR
-0.3010 ABOVE MISSES. </s>
-0.3010 ABSTRACT AND ORDERED
-0.3010 AN APPROACH LIKE
-0.3010 AN IMPREGNABLE BLOCKHOUSE.")
-0.3010 AND ARE DIFFICULT
-0.3010 AND INDIFFERENT. </s>
-0.3010 AND JUSTIFIABLY, THAT
-0.3010 AND NONREFERENTIAL. </s>
-0.3010 AND ORDERED MANIPULATION
-0.3010 AND STATIC. </s>
-0.3010 ANYTHING OUTSIDE THE
-0.3010 APPROACH LIKE THE
-0.3010 ARE DIFFICULT TO
-0.3010 ARE STILL BORED.
-0.3010 ARE‚ AUTONOMOUS AND
-0.3010 ART IN ITS
-0.3010 AS "A MADMAN
-0.3010 AS "THE REEF,"
-0.3010 AS SACRED BUT
-0.3010 AS THEY PROBABLY
-0.3010 ASPECTS LIKE THOSE
-0.3010 AUTONOMOUS AND INDIFFERENT.
-0.3010 BE THE PRODUCT
-0.3010 BECOME FLAT AND
-0.3010 BEING FORCED TO
-0.3010 BOREDOM MAY BE
-0.3010 BOUNDARIES OF THOUGHT,
-0.3010 BUT AS THEY
-0.3010 BUT ASPECTS LIKE
-0.3010 CASE, THEIR BOREDOM
-0.3010 CLAIM THAT GIVEN
-0.3010 COMMUNICATE USING CONVENTIONAL
-0.3010 CONFINES OF HIS
-0.3010 CONVENTIONAL MEANINGS FOR
-0.3010 DENIES THE EXISTENCE
-0.3010 DIFFICULT TO COMMUNICATE
-0.3010 DIMENSIONS OF REALITY
-0.3010 EXIST FOR INDIVIDUALS
-0.3010 EXISTENCE OF ANYTHING
-0.3010 FLAT AND STATIC.
-0.3010 FOR INDIVIDUALS AND
-0.3010 FOR IT "AMOUNTS
-0.3010 FOR THE SOLIPSIST
-0.3010 FOR WORDS. </s>
-0.3010 FORCED TO VIEW
-0.3010 GIVEN THIS THEY
-0.3010 HE DENIES THE
-0.3010 HIGHLY ABSTRACT AND
-0.3010 HIS OWN MIND.
-0.3010 IF THIS IS
-0.3010 IMPREGNABLE BLOCKHOUSE.") </s>
-0.3010 IN AN IMPREGNABLE
-0.3010 IN ITS HIGHLY
-0.3010 INDIVIDUALS AND ARE
-0.3010 IS A POETRY
-0.3010 IS LIKEWISE SELF-CONTAINED
-0.3010 IS NOT ENOUGH.
-0.3010 IS THE CASE,
-0.3010 IT "AMOUNTS TO
-0.3010 ITS HIGHLY ABSTRACT
-0.3010 JUSTIFIABLY, THAT THERE
-0.3010 LIKE THE ABOVE
-0.3010 LIKE THOSE EXIST
-0.3010 LIKEWISE SELF-CONTAINED AND
-0.3010 LOSE THEIR QUALITIES
-0.3010 MADMAN SHUT UP
-0.3010 MANIPULATION OF THOUGHTS
-0.3010 MAY BE THE
-0.3010 MAY CLAIM THAT
-0.3010 MAY SAY, AND
-0.3010 ME NOTHING EXISTS."
-0.3010 MEANINGS FOR WORDS.
-0.3010 NOT AS SACRED
-0.3010 NOT ENOUGH. </s>
-0.3010 NOTHING EXISTS." </s>
-0.3010 OF ANYTHING OUTSIDE
-0.3010 OF BEING FORCED
-0.3010 OF EXTENSION. </s>
-0.3010 OF HIS OWN
-0.3010 OF REALITY LOSE
-0.3010 OF THE SOLIPSIST
-0.3010 OF THOUGHT, THE
-0.3010 OF THOUGHTS IS
-0.3010 OR POWER OR
-0.3010 OR SOME OTHER
-0.3010 ORDERED MANIPULATION OF
-0.3010 OTHER QUALITY TO
-0.3010 OTHERS MAY CLAIM
-0.3010 OUTSIDE ME NOTHING
-0.3010 OUTSIDE THE SELF-ENCLOSED
-0.3010 OWN MIND. </s>
-0.3010 POETRY OR POWER
-0.3010 POWER OR SOME
-0.3010 PROBABLY ARE‚ AUTONOMOUS
-0.3010 PRODUCT OF BEING
-0.3010 QUALITIES OF EXTENSION.
-0.3010 QUALITY TO THIS
-0.3010 RANDOM DIMENSIONS OF
-0.3010 REALITY IS NOT
-0.3010 REALITY LOSE THEIR
-0.3010 REEF," FOR IT
-0.3010 REFERS TO SOLIPSISM
-0.3010 SACRED BUT AS
-0.3010 SAY, AND JUSTIFIABLY,
-0.3010 SAYING THAT OUTSIDE
-0.3010 SCHOPENHAUER SPEAKS OF
-0.3010 SELF-CONTAINED AND NONREFERENTIAL.
-0.3010 SELF-ENCLOSED CONFINES OF
-0.3010 SERIAL ART IN
-0.3010 SHUT UP IN
-0.3010 SOLIPSISM AS "THE
-0.3010 SOLIPSIST AS "A
-0.3010 SOLIPSIST REALITY IS
-0.3010 SOME MAY SAY,
-0.3010 SOME OTHER QUALITY
-0.3010 SPEAKS OF THE
-0.3010 STILL BORED. </s>
-0.3010 THAT AN APPROACH
-0.3010 THAT GIVEN THIS
-0.3010 THAT OUTSIDE ME
-0.3010 THAT THERE IS
-0.3010 THE ABOVE MISSES.
-0.3010 THE BOUNDARIES OF
-0.3010 THE CASE, THEIR
-0.3010 THE EXISTENCE OF
-0.3010 THE PRODUCT OF
-0.3010 THE RANDOM DIMENSIONS
-0.3010 THE SELF-ENCLOSED CONFINES
-0.6021 THE SOLIPSIST AS
-0.6021 THE SOLIPSIST REALITY
-0.3010 THEIR BOREDOM MAY
-0.3010 THEIR QUALITIES OF
-0.3010 THERE IS A
-0.3010 THEY ARE STILL
-0.3010 THEY BECOME FLAT
-0.3010 THEY PROBABLY ARE‚
-0.3010 THINGS NOT AS
-0.3010 THIS IS THE
-0.3010 THIS THEY ARE
-0.3010 THIS WORK THAT
-0.3010 THOSE EXIST FOR
-0.3010 THOUGHT, THE RANDOM
-0.3010 THOUGHTS IS LIKEWISE
-0.3010 TO COMMUNICATE USING
-0.3010 TO SAYING THAT
-0.3010 TO SOLIPSISM AS
-0.3010 TO THIS WORK
-0.3010 TO VIEW THINGS
-0.3010 UP IN AN
-0.3010 USING CONVENTIONAL MEANINGS
-0.3010 VIEW THINGS NOT
-0.3010 VIEWED WITHIN THE
-0.3010 WITHIN THE BOUNDARIES
-0.3010 WORK THAT AN

\end\
