Language model created by QuickLM on Mon Nov 22 16:23:05 EST 2010
Copyright (c) 1996-2010 Carnegie Mellon University and Alexander I. Rudnicky

The model is in standard ARPA format, designed by Doug Paul while he was at MITRE.

The code that was used to produce this language model is available in Open Source.
Please visit http://www.speech.cs.cmu.edu/tools/ for more information

The (fixed) discount mass is 0.5. The backoffs are computed using the ratio method.
This model based on a corpus of 815 sentences and 2727 words

\data\
ngram 1=2727
ngram 2=8246
ngram 3=9518

\1-grams:
-3.6735 00 -0.3004
-4.3725 0132 -0.3010
-4.3725 02 -0.3010
-4.3725 0534 -0.3010
-4.3725 06329551 -0.3010
-4.3725 08 -0.2858
-4.0714 09 -0.2857
-3.6735 1 -0.2946
-4.3725 10 -0.3010
-3.8953 11 -0.3009
-4.3725 11023 -0.3010
-4.3725 11599 -0.2858
-4.3725 12 -0.3010
-4.3725 122000661 -0.3010
-4.3725 125 -0.3010
-4.0714 13 -0.3009
-4.3725 130 -0.3010
-4.3725 1313 -0.3010
-4.3725 1320 -0.3008
-4.3725 133 -0.3010
-4.3725 135 -0.3010
-4.3725 136 -0.3010
-4.3725 139 -0.3010
-4.3725 14 -0.3009
-4.3725 142 -0.3010
-4.0714 144 -0.3010
-4.3725 15 -0.3004
-4.3725 150 -0.3010
-4.3725 156 -0.3010
-4.3725 1627 -0.2858
-4.3725 1964 -0.2999
-4.3725 1980 -0.3010
-3.4694 2 -0.2952
-4.0714 20 -0.3009
-4.3725 2004 -0.3010
-3.8953 2006 -0.2857
-4.3725 21822051779645 -0.2858
-4.3725 22 -0.3010
-4.3725 227 -0.3010
-4.3725 24 -0.3009
-4.3725 2524 -0.2858
-4.3725 255 -0.3009
-4.3725 26 -0.3010
-4.0714 30 -0.3010
-3.8953 4 -0.3008
-4.3725 40 -0.3009
-4.3725 416 -0.2858
-4.3725 418 -0.3010
-4.3725 4217 -0.3010
-4.3725 4793 -0.3010
-4.3725 4813 -0.2858
-4.3725 499 -0.3010
-4.3725 5 -0.3009
-4.3725 50 -0.3009
-4.3725 51 -0.3010
-4.3725 5329 -0.3010
-4.3725 5350290 -0.3010
-4.3725 5657 -0.3010
-4.3725 614 -0.3010
-4.3725 619 -0.3010
-4.3725 63 -0.2858
-4.3725 6613 -0.3010
-3.6735 7 -0.2857
-4.0714 7155 -0.3010
-4.3725 72 -0.2858
-4.3725 73 -0.2858
-4.3725 733 -0.3010
-3.8953 77 -0.2858
-3.7704 8 -0.3008
-4.3725 80 -0.2858
-4.3725 800 -0.3010
-4.3725 81 -0.2942
-4.3725 85 -0.2858
-4.3725 850 -0.3010
-4.3725 863 -0.3010
-4.3725 87 -0.2858
-4.3725 9 -0.3010
-4.3725 9380 -0.3010
-4.3725 9390 -0.3010
-4.3725 95 -0.2858
-4.3725 9556 -0.2858
-4.3725 96 -0.2858
-1.4613 </s> -0.3010
-1.4613 <s> -0.1928
-1.9592 A -0.2718
-4.3725 ABANDON -0.3009
-4.3725 ABANDONED -0.2998
-3.8953 ABBY -0.2998
-4.3725 ABELSON -0.3010
-4.3725 ABERCROMBIE -0.3009
-3.8953 ABILITY -0.2936
-3.8953 ABLE -0.2955
-4.3725 ABORIGINAL -0.3010
-2.8043 ABOUT -0.2620
-4.3725 ABOVE -0.3004
-4.3725 ABSOLVED -0.3008
-4.3725 ABSORBED -0.3004
-4.3725 ABSORBING -0.2987
-4.3725 ABSTAINING -0.3005
-4.3725 ABSTRACT -0.2858
-4.3725 ACADEMIANS -0.2858
-4.3725 ACADEMIC -0.3003
-4.3725 ACADEMY -0.3010
-4.3725 ACCEPT -0.3009
-4.3725 ACCESSIBLE -0.3007
-4.3725 ACCOUNT -0.2858
-4.3725 ACCRETION -0.2951
-4.3725 ACCUMULATING -0.3007
-4.3725 ACCUMULATION -0.2951
-4.3725 ACHIEVED -0.2984
-4.3725 ACHIEVEMENT -0.2858
-4.3725 ACROSS -0.3007
-4.0714 ACT -0.2940
-4.0714 ACTING -0.2996
-3.6735 ACTION -0.2792
-4.3725 ACTIONS -0.2942
-4.3725 ACTIVISM -0.2858
-3.7704 ACTIVITY -0.2791
-4.3725 ACTS -0.3006
-4.0714 ACTUAL -0.3007
-4.3725 ACTUALIZE -0.3000
-3.8953 ACTUALLY -0.2948
-4.3725 ACUTELY -0.3010
-4.0714 ADAM -0.3003
-4.3725 ADAM'S -0.3010
-4.3725 ADD -0.3009
-4.3725 ADDED -0.3010
-4.3725 ADDITION -0.2955
-4.0714 ADDRESS -0.2949
-4.3725 ADDS -0.3006
-4.3725 ADOLESCENT -0.3009
-4.3725 ADVANCE -0.3003
-4.3725 ADVICE -0.3002
-4.3725 AERIAL -0.3010
-4.0714 AESTHETIC -0.3003
-4.3725 AESTHETICIZING -0.3007
-4.3725 AFLEET -0.3010
-4.0714 AFRAID -0.2796
-3.4694 AFTER -0.2896
-3.8953 AGAIN -0.2858
-4.3725 AGAINST -0.2992
-4.3725 AGE -0.2858
-4.3725 AGENCY -0.3010
-4.3725 AGO -0.3008
-4.3725 AGREE -0.2955
-4.3725 AHEAD -0.2858
-4.3725 AIM -0.3010
-4.3725 AIMING -0.2999
-4.3725 AIMS -0.2970
-4.3725 AIRED -0.3005
-4.3725 AL -0.3010
-4.0714 ALCHEMY -0.2850
-4.3725 ALEX -0.3010
-4.0714 ALIGNMENT -0.2858
-4.3725 ALIVE -0.3008
-2.8410 ALL -0.2639
-4.3725 ALLEGATIONS -0.2951
-4.3725 ALLOW -0.3005
-4.3725 ALLUDE -0.2955
-4.3725 ALLURE -0.2985
-3.8953 ALMOST -0.3006
-4.0714 ALONE -0.2982
-3.8953 ALREADY -0.2960
-3.7704 ALSO -0.2940
-4.3725 ALTERNATE -0.3008
-3.5274 ALWAYS -0.2976
-2.8673 AM -0.2839
-4.3725 AMBITION -0.3007
-4.3725 AMBITIONS -0.3003
-4.3725 AMERICA -0.2858
-4.3725 AMERICA'S -0.3010
-3.6735 AMERICAN -0.2999
-4.3725 AMERICANA -0.2858
-4.3725 AMORPHOUS -0.3010
-4.3725 AMPLIFIERS -0.3010
-2.6243 AN -0.2981
-4.3725 ANALOG -0.2970
-4.3725 ANALOGY -0.3010
-3.8953 ANALYSIS -0.2851
-4.3725 ANALYTICAL -0.3010
-4.3725 ANARCHO -0.3010
-4.3725 ANCHORAGE -0.3009
-4.0714 ANCHORS -0.2943
-2.0300 AND -0.2379
-4.3725 ANDY'S -0.3010
-4.3725 ANGLE -0.2858
-4.0714 ANGRY -0.3010
-4.3725 ANIMAL -0.2858
-4.3725 ANIMALS -0.2858
-4.3725 ANIMATING -0.3009
-4.0714 ANKLE -0.3010
-3.4694 ANOTHER -0.2951
-4.3725 ANSWER -0.2985
-3.8953 ANSWERS -0.2988
-4.3725 ANTI -0.3010
-4.3725 ANTIDOTE -0.2955
-4.0714 ANXIETY -0.2999
-3.0503 ANY -0.2832
-3.8953 ANYONE -0.2857
-3.1684 ANYTHING -0.2638
-4.3725 ANYWAY -0.2858
-4.0714 ANYWHERE -0.2853
-4.0714 APART -0.2970
-4.3725 APPARENT -0.2985
-4.3725 APPEAR -0.3000
-4.3725 APPEARANCE -0.2951
-4.3725 APPLIANCE -0.2951
-4.0714 APPLICATION -0.2851
-4.3725 APPLIED -0.2985
-4.3725 APPRECIATE -0.3007
-4.3725 APPRECIATION -0.2984
-4.3725 APPROACH -0.2955
-4.3725 APPROPRIATE -0.3010
-4.3725 APRIL -0.3010
-4.3725 ARCTIC -0.3010
-2.6482 ARE -0.2773
-4.3725 AREN'T -0.2942
-4.3725 ARGUE -0.2998
-4.0714 ARM -0.3003
-4.3725 ARMS -0.3008
-3.2585 AROUND -0.2699
-4.3725 AROUSAL -0.3007
-4.3725 ARRANGEMENT -0.2970
-4.0714 ARRESTING -0.3003
-4.3725 ARRIVE -0.3003
-2.6401 ART -0.2528
-4.3725 ARTICULATE -0.2858
-4.3725 ARTICULATED -0.3009
-4.3725 ARTIFACT -0.3010
-3.4694 ARTIST -0.2782
-4.0714 ARTISTIC -0.3009
-3.5274 ARTISTS -0.2779
-4.0714 ARTS -0.3010
-4.3725 ARTSWAGER -0.3010
-2.6243 AS -0.2687
-4.3725 ASIDE -0.3005
-4.0714 ASK -0.2857
-4.0714 ASKED -0.2998
-4.3725 ASKS -0.2989
-4.3725 ASLEEP -0.3004
-4.3725 ASPECT -0.2951
-4.3725 ASSEMBLE -0.2985
-4.3725 ASSERTION -0.2987
-4.3725 ASSIGNMENTS -0.3008
-4.3725 ASSOCIATIVE -0.3010
-4.3725 ASSUMING -0.2985
-2.7597 AT -0.2594
-3.8953 ATAVISTIC -0.2964
-4.3725 ATHEY'S -0.3003
-4.3725 ATHLETIC -0.3008
-4.3725 ATOMIC -0.3010
-4.3725 ATTAINABLE -0.2984
-4.3725 ATTEMPTED -0.2955
-4.0714 ATTENTION -0.2934
-4.3725 ATTITUDE -0.2951
-4.3725 ATTITUDES -0.3010
-3.8953 ATTRACTIVE -0.2844
-4.3725 AUDIENCE -0.3010
-4.3725 AUSTRALIAN -0.3010
-4.3725 AUTHORSHIP -0.2858
-3.8953 AUTOBIOGRAPHICAL -0.2935
-4.3725 AUTOBIOGRAPHY -0.2858
-4.3725 AVERAGE -0.2858
-4.3725 AVOID -0.3010
-3.8953 AWARE -0.2951
-4.3725 AWAY -0.3005
-4.3725 AWFUL -0.3010
-4.3725 AXIS -0.3010
-4.0714 BABY -0.3001
-3.3725 BACK -0.2876
-4.3725 BACKGROUND -0.2984
-4.3725 BACKWARD -0.3010
-4.3725 BACTRIAN -0.3010
-3.7704 BAD -0.2849
-4.3725 BALL -0.2970
-4.3725 BALLS -0.2858
-4.3725 BARBARA -0.3010
-4.3725 BARTER -0.3006
-4.3725 BARTHES -0.3010
-4.3725 BASE -0.3010
-4.3725 BASEBALL -0.3010
-4.0714 BASED -0.3001
-4.3725 BASEMENT -0.3003
-4.0714 BASIS -0.2857
-4.3725 BAT -0.3010
-4.3725 BAUER -0.3010
-4.3725 BC -0.3010
-2.5091 BE -0.2562
-4.3725 BEARCAT -0.2858
-4.3725 BEATING -0.2858
-3.8953 BEAUTIFUL -0.3008
-4.0714 BEAVER -0.2969
-4.0714 BECAME -0.3000
-3.1964 BECAUSE -0.2814
-3.7704 BECOME -0.2891
-3.4694 BECOMES -0.2882
-4.3725 BECOMING -0.3010
-4.3725 BED -0.3007
-3.2933 BEEN -0.2944
-3.3725 BEFORE -0.2628
-4.0714 BEGAN -0.2942
-4.3725 BEGIN -0.2955
-4.3725 BEHALF -0.2951
-4.3725 BEHAVIOR -0.2951
-4.3725 BEHIND -0.2989
-3.2585 BEING -0.2846
-4.3725 BELIEF -0.2984
-4.3725 BELIEFS -0.2858
-3.6735 BELIEVE -0.2899
-4.3725 BELIEVES -0.2985
-4.3725 BELMONT -0.3010
-4.3725 BELOW -0.2942
-4.3725 BETRAYAL -0.2858
-3.7704 BETTER -0.2839
-3.6735 BETWEEN -0.2887
-4.3725 BEUYS -0.3000
-4.3725 BEYOND -0.3010
-4.3725 BIBLES -0.3003
-4.3725 BIGGER -0.2858
-4.3725 BIGGEST -0.3008
-4.3725 BILDUNGSROMAN -0.2955
-4.3725 BILLIONS -0.2858
-4.3725 BINGE -0.3010
-4.0714 BIOGRAPHY -0.2984
-4.3725 BIOLOGICAL -0.3010
-4.0714 BIOLOGY -0.2787
-4.3725 BIOMEDICAL -0.3010
-4.3725 BIPOLAR -0.2858
-3.7704 BIT -0.2950
-4.3725 BITS -0.2951
-4.3725 BLACK -0.3010
-3.8953 BLAH -0.3009
-4.3725 BLEEDS -0.3004
-4.3725 BLENDING -0.2951
-4.3725 BLENDS -0.3004
-3.6735 BLIND -0.3007
-4.0714 BLISS -0.2951
-4.3725 BLOB -0.2985
-3.8953 BLOOD -0.2846
-4.3725 BLUE -0.3010
-4.3725 BOARDS -0.3008
-4.3725 BODIES -0.3007
-3.3311 BODY -0.2856
-4.0714 BOOK -0.2829
-4.0714 BOOKS -0.3006
-4.3725 BOOTH -0.2858
-4.0714 BOOTS -0.2857
-4.3725 BORDERS -0.3009
-4.3725 BORE -0.2858
-4.3725 BORED -0.2998
-4.3725 BORGEON -0.2858
-4.3725 BORING -0.2985
-4.3725 BORN -0.3000
-4.3725 BORNEO -0.3010
-4.3725 BOSTON -0.3010
-3.8953 BOTH -0.2933
-4.3725 BOUGHT -0.2942
-3.7704 BOUNCE -0.3008
-4.3725 BOXER -0.3010
-4.3725 BOXING -0.3010
-3.7704 BOY -0.2824
-3.5943 BOYS -0.2811
-4.3725 BRACKETS -0.3009
-4.3725 BRAIN -0.3010
-4.3725 BRAVE -0.2858
-4.0714 BRAVERY -0.2857
-4.3725 BREAK -0.2858
-4.3725 BREAKUP -0.3009
-4.3725 BREATH -0.3010
-4.0714 BREATHING -0.2857
-4.3725 BRILLIANCE -0.3003
-4.3725 BRILLIANT -0.3010
-3.6735 BRING -0.2897
-4.3725 BROKEN -0.2858
-4.0714 BROTHER -0.2983
-4.3725 BROUGHT -0.2955
-4.3725 BRUCE -0.3010
-4.3725 BRUSH -0.2970
-4.3725 BRUTALITY -0.3010
-4.3725 BUDDHISM -0.2858
-4.3725 BUDDY -0.2858
-4.0714 BUILD -0.2978
-3.8953 BUILDING -0.2831
-4.3725 BUILDINGS -0.2970
-4.3725 BUILDS -0.2962
-4.3725 BUILT -0.2962
-3.8953 BURDEN -0.2875
-4.0714 BURNING -0.3008
-4.3725 BURTON -0.2858
-2.7704 BUT -0.2733
-3.2933 BY -0.2906
-4.3725 C -0.3010
-4.3725 CAFFEINE -0.2970
-4.3725 CAGE -0.2984
-4.3725 CAKE -0.2970
-4.3725 CALCULATE -0.2942
-4.3725 CALIT -0.3009
-3.5274 CALL -0.2896
-4.0714 CALLED -0.2978
-3.3311 CAME -0.2903
-3.8953 CAMERA -0.2810
-4.3725 CAMPUS -0.3001
-2.8043 CAN -0.2856
-3.4694 CAN'T -0.2998
-4.3725 CANCEL -0.3010
-4.3725 CANCELED -0.3006
-4.3725 CANCELLATION -0.2858
-4.3725 CANCELLED -0.3010
-4.3725 CANDIDATE -0.2999
-4.3725 CANNOT -0.3003
-4.0714 CANONS -0.3001
-4.3725 CANT -0.3008
-4.3725 CANVAS -0.2858
-4.3725 CAPABLE -0.2951
-3.8953 CAPACITY -0.2944
-4.0714 CAPTURE -0.2855
-4.3725 CAPTURING -0.3003
-4.3725 CARDIAC -0.3010
-3.6735 CARE -0.2846
-4.0714 CARED -0.3003
-4.3725 CARL -0.3010
-4.3725 CARRY -0.3010
-4.3725 CASCADES -0.3008
-4.3725 CASE -0.2992
-4.3725 CAST -0.2951
-4.3725 CASTING -0.2962
-4.3725 CASTS -0.2942
-4.0714 CAUTION -0.2969
-4.3725 CEMENT -0.3010
-4.3725 CENSOR -0.2858
-4.0714 CENTER -0.2992
-3.7704 CENTRAL -0.3008
-4.3725 CENTURY -0.3006
-3.5943 CERTAIN -0.3009
-4.0714 CERTAINLY -0.2998
-3.8953 CHAIN -0.2837
-4.3725 CHAINS -0.2951
-4.3725 CHALK -0.3010
-3.7704 CHALLENGE -0.2769
-4.0714 CHALLENGING -0.2983
-4.3725 CHAMBER -0.2951
-4.3725 CHAMELEON -0.3010
-4.3725 CHANGE -0.2999
-3.8953 CHANGED -0.2985
-4.0714 CHANGES -0.2941
-4.3725 CHANGING -0.2970
-4.3725 CHANNELS -0.2942
-4.0714 CHAOS -0.2947
-3.7704 CHAOTIC -0.2981
-3.7704 CHARACTER -0.2944
-4.3725 CHARACTERISTICS -0.2951
-4.0714 CHARACTERS -0.2796
-4.3725 CHARGE -0.2858
-4.3725 CHECKED -0.2992
-4.3725 CHEESY -0.3003
-4.3725 CHEMICAL -0.2970
-4.3725 CHERISH -0.2858
-4.3725 CHEST -0.3003
-4.0714 CHILD -0.3009
-4.0714 CHILDHOOD -0.2954
-4.3725 CHILDREN -0.3003
-4.0714 CHOICE -0.3009
-4.3725 CHOKE -0.3001
-4.3725 CIRCLES -0.3000
-3.7704 CIRCUIT -0.3008
-4.3725 CIRCUMSTANCES -0.2984
-4.3725 CLAIM -0.3010
-4.3725 CLARK -0.2942
-3.5274 CLASS -0.2728
-4.3725 CLASSICAL -0.3000
-3.6735 CLEAN -0.2843
-4.3725 CLEAR -0.3010
-4.3725 CLICHES -0.3010
-3.8953 CLINICAL -0.3003
-4.3725 CLOSE -0.2955
-4.0714 CLOTHES -0.2857
-4.3725 CLOWNS -0.3010
-4.3725 CLUNKINESS -0.2951
-4.3725 COAL -0.3010
-4.3725 COARSEN -0.2942
-4.0714 CODA -0.2787
-4.3725 CODED -0.3010
-4.3725 CODEX -0.3010
-4.3725 COHEN -0.3010
-4.0714 COLLECTION -0.2951
-4.3725 COLLEGIATE -0.3010
-4.3725 COLLIDER -0.2858
-3.4694 COME -0.2929
-4.3725 COMEDIC -0.3010
-3.8953 COMES -0.2998
-4.3725 COMFORTABLE -0.3010
-4.3725 COMICAL -0.3010
-3.5943 COMING -0.3003
-4.3725 COMMENT -0.3001
-4.3725 COMMIT -0.2955
-4.3725 COMMITMENT -0.2983
-4.3725 COMMITTING -0.2955
-4.0714 COMMON -0.2983
-4.3725 COMMUNICATE -0.3009
-4.0714 COMMUNICATION -0.2858
-4.3725 COMMUNICATOR -0.3010
-4.0714 COMMUNITY -0.2962
-4.3725 COMPANIONSHIP -0.3003
-4.3725 COMPLETELY -0.3009
-3.6735 COMPLEX -0.2863
-4.3725 COMPLEXITY -0.2858
-3.8953 COMPLICATE -0.2996
-4.0714 COMPLICATED -0.2856
-4.3725 COMPONENTS -0.2951
-4.3725 COMPOSE -0.3009
-4.0714 COMPUTATION -0.2856
-4.3725 COMPUTE -0.3010
-3.6735 COMPUTER -0.2814
-4.0714 COMPUTERS -0.3000
-3.6735 COMPUTING -0.2770
-4.3725 CONCENTRATION -0.3008
-3.7704 CONCEPT -0.2724
-4.3725 CONCEPTS -0.2951
-4.3725 CONCERNED -0.2954
-4.3725 CONCERNING -0.3009
-3.8953 CONCERNS -0.2881
-4.3725 CONCERT -0.2998
-4.3725 CONCLUSIVE -0.3010
-4.3725 CONCRETE -0.3010
-4.3725 CONDITION -0.2983
-4.3725 CONDITIONS -0.2858
-4.3725 CONDOMS -0.2942
-4.3725 CONFERRED -0.2942
-3.8953 CONFIDENCE -0.2984
-4.0714 CONFIDENT -0.2985
-4.3725 CONFLICT -0.2984
-4.3725 CONFUSING -0.3007
-4.3725 CONNECTION -0.2992
-4.3725 CONNECTIONS -0.2985
-4.3725 CONNOTES -0.3010
-4.0714 CONSCIOUS -0.2984
-4.3725 CONSCIOUSNESS -0.2858
-4.3725 CONSENT -0.3009
-4.0714 CONSIDERED -0.2857
-4.0714 CONSISTENT -0.2984
-4.3725 CONSOLIDATING -0.2992
-4.0714 CONSTANT -0.3010
-4.3725 CONSTANTLY -0.3010
-4.3725 CONSTELLATION -0.2858
-3.8953 CONSTRAINT -0.2939
-4.3725 CONSTRUCT -0.3005
-4.3725 CONSUMER -0.3010
-4.3725 CONTACT -0.2998
-4.3725 CONTAINED -0.3010
-3.8953 CONTEMPORARY -0.3007
-4.3725 CONTEMPT -0.3000
-4.0714 CONTENT -0.2831
-4.0714 CONTEXT -0.2984
-4.3725 CONTINGENCIES -0.2858
-4.3725 CONTINGENCY -0.3009
-4.3725 CONTINUATION -0.2951
-3.7704 CONTINUE -0.2800
-4.3725 CONTOURS -0.2951
-4.3725 CONTRACT -0.2858
-4.0714 CONTRACTION -0.3010
-4.3725 CONTRADICTIONS -0.2970
-4.3725 CONTRADICTORY -0.3010
-4.3725 CONTRAPTIONS -0.2984
-4.3725 CONTRIVANCES -0.3004
-3.5274 CONTROL -0.2686
-4.3725 CONUNDRUM -0.2858
-4.3725 CONVENTIONS -0.2951
-4.3725 CONVERSATION -0.2983
-4.3725 CONVEY -0.2962
-4.3725 CONVINCE -0.3009
-3.7704 COOL -0.2989
-4.3725 COPYING -0.3010
-4.3725 CORE -0.3009
-4.3725 CORNER -0.2951
-4.3725 COSINE -0.2983
-4.3725 COSMOLINE -0.3010
-4.3725 COST -0.3008
-4.3725 COSTS -0.3008
-3.1684 COULD -0.2821
-3.8953 COUNTRY -0.2857
-4.3725 COUNTY -0.3010
-4.3725 COUPLED -0.2998
-4.3725 COURSE -0.3010
-4.3725 COURTYARDS -0.2858
-4.3725 COYOTE -0.2858
-3.5943 CRAFT -0.2698
-4.3725 CRAFTED -0.3010
-4.3725 CRAP -0.3010
-4.3725 CRAPLAB -0.2858
-4.3725 CRAPPY -0.3010
-4.0714 CRAWL -0.3008
-3.7704 CREATE -0.2961
-4.0714 CREATED -0.2979
-4.0714 CREATES -0.2962
-3.8953 CREATION -0.2795
-4.3725 CREATIVE -0.3010
-4.0714 CREATIVITY -0.2857
-4.3725 CREATURE -0.3010
-3.6735 CRITICAL -0.3000
-4.0714 CRITIQUE -0.2796
-4.3725 CROSS -0.3008
-4.3725 CROTCH -0.2858
-4.3725 CROW -0.2858
-4.3725 CROWD -0.2942
-4.3725 CRUDE -0.3010
-4.0714 CRY -0.2951
-4.3725 CRYING -0.3005
-4.3725 CRYSTAL -0.3008
-4.3725 CRYSTALLINE -0.3009
-4.0714 CULTURAL -0.3009
-4.3725 CULTURE -0.2955
-3.8953 CURIOUS -0.2969
-4.3725 CURRENT -0.2984
-4.3725 CURSIVE -0.3009
-4.3725 CURVE -0.3008
-4.3725 CUT -0.3006
-4.3725 CYBERPUNK -0.3010
-4.3725 CYCLE -0.2983
-4.3725 CYCLICAL -0.3010
-4.0714 D -0.3010
-3.6735 DAD -0.2849
-4.0714 DAD'S -0.3010
-4.3725 DADA -0.3010
-4.3725 DADAENGINE -0.3010
-4.3725 DADDYS -0.3010
-4.3725 DAM -0.3008
-4.3725 DAMN -0.2987
-4.3725 DAMNED -0.3010
-4.3725 DANCE -0.3003
-4.3725 DANGEROUS -0.2858
-4.0714 DARK -0.2969
-4.3725 DATA -0.2858
-3.8953 DAUGHTER -0.2855
-4.0714 DAUGHTERS -0.2951
-4.3725 DAY -0.2955
-4.0714 DAYS -0.3006
-4.3725 DEAD -0.3010
-4.0714 DEAL -0.2998
-4.3725 DEALING -0.2998
-4.3725 DEAR -0.2858
-3.8953 DEATH -0.2995
-4.0714 DECIDED -0.2955
-4.3725 DECIDER -0.2858
-4.3725 DECIPHER -0.3009
-4.3725 DECISION -0.2951
-4.3725 DECISIONS -0.2970
-4.3725 DECONSTRUCTED -0.3010
-3.7704 DEEP -0.3009
-4.3725 DEEPLY -0.3010
-4.0714 DEER -0.3000
-4.0714 DEFAULT -0.2996
-3.8953 DEFEATED -0.2850
-3.8953 DEFINE -0.2962
-3.7704 DEFINITELY -0.2957
-4.3725 DEFINITION -0.2951
-4.0714 DEFINITIVE -0.3010
-4.0714 DEGREES -0.2951
-4.3725 DEMAND -0.3001
-4.3725 DEMATERIALIZE -0.2955
-4.3725 DEMONSTRABLE -0.3010
-4.3725 DEMONSTRATE -0.3000
-4.0714 DEMONSTRATES -0.2808
-4.0714 DENSE -0.3010
-3.8953 DENY -0.2936
-4.3725 DEPARTMENT -0.2951
-4.3725 DEPENDABLE -0.3003
-4.3725 DEPENDENCE -0.3010
-4.3725 DEPRESSION -0.3007
-4.3725 DERIVATIVE -0.2951
-4.3725 DERIVE -0.3010
-4.3725 DESCRIBE -0.3003
-4.0714 DESCRIBED -0.2996
-4.0714 DESIGN -0.2942
-4.3725 DESIGNED -0.3010
-3.3725 DESIRE -0.2781
-4.0714 DESIRES -0.3006
-4.3725 DESPERATE -0.2858
-4.3725 DESTINY -0.2858
-4.3725 DESTRUCTION -0.3010
-4.3725 DESTRUCTIVE -0.2955
-4.3725 DETERMINE -0.2985
-4.3725 DETERMINED -0.3009
-4.0714 DETERMINISTIC -0.2856
-3.4694 DEVELOP -0.2852
-3.7704 DEVELOPING -0.2946
-4.0714 DEVELOPMENT -0.2983
-4.3725 DEVELOPS -0.3010
-4.0714 DEVICE -0.2857
-4.3725 DEVISED -0.2858
-4.3725 DIARRHEA -0.2858
-4.3725 DICK -0.3009
-3.2933 DID -0.2882
-3.7704 DIDN'T -0.3006
-4.0714 DIE -0.2850
-4.0714 DIED -0.2969
-4.3725 DIEGO -0.2858
-3.5943 DIFFERENT -0.3000
-4.3725 DIFFERENTLY -0.3010
-4.0714 DIFFICULTY -0.2902
-4.3725 DIGGING -0.2962
-4.0714 DIGITAL -0.3006
-3.8953 DIMENSION -0.2855
-4.3725 DIMENSIONAL -0.3009
-4.3725 DIMENSIONS -0.2951
-3.7704 DIRECT -0.2856
-4.0714 DIRECTION -0.2847
-4.0714 DIRECTIONAL -0.3002
-4.3725 DIRECTNESS -0.2970
-4.3725 DIRT -0.3004
-4.3725 DISABILITY -0.3010
-4.3725 DISABLED -0.3010
-4.3725 DISAPPOINTED -0.2858
-4.3725 DISASSEMBLING -0.2970
-3.5943 DISCIPLINE -0.2853
-4.3725 DISCIPLINED -0.2987
-4.3725 DISCOVERED -0.2985
-4.0714 DISCRETE -0.3010
-4.3725 DISCUSSING -0.2970
-4.3725 DISENGAGEMENT -0.2998
-4.0714 DISGUST -0.2829
-4.3725 DISMANTLED -0.3008
-4.3725 DISMISS -0.2858
-4.3725 DISMISSED -0.2858
-4.0714 DISSATISFACTION -0.2957
-4.0714 DISSOLVED -0.2963
-4.3725 DISTANCING -0.3010
-4.0714 DISTILLATIONS -0.2985
-4.3725 DISTRICT -0.2858
-4.3725 DISTURBANCE -0.3010
-4.3725 DISTURBANCES -0.3009
-4.3725 DITCHED -0.2992
-2.8162 DO -0.2538
-4.3725 DOCUMENTATION -0.2858
-3.6735 DOES -0.2974
-3.4694 DOESN'T -0.2981
-3.5943 DOG -0.3003
-3.4694 DOING -0.2727
-2.7004 DON'T -0.2722
-4.0714 DONALD -0.3010
-3.2585 DONE -0.2828
-4.3725 DOUBT -0.3003
-3.2585 DOWN -0.2871
-4.3725 DRASTICALLY -0.3010
-4.3725 DRAW -0.3005
-3.8953 DRAWING -0.2940
-4.3725 DRAWINGS -0.3010
-4.3725 DRAWN -0.3010
-4.3725 DRAWS -0.3010
-3.8953 DREAM -0.2831
-4.3725 DREAMS -0.2858
-4.3725 DRINK -0.3010
-4.3725 DRIVE -0.2942
-4.3725 DRIVEN -0.3008
-4.3725 DRIVING -0.3010
-4.3725 DRUNK -0.3000
-4.3725 DUE -0.2955
-4.3725 DUH -0.3010
-4.3725 DUMB -0.3010
-4.3725 DUPLICITOUS -0.2858
-4.3725 DYSTOPIAN -0.3010
-4.3725 E -0.3010
-4.3725 EACH -0.2951
-4.3725 EAGER -0.2955
-4.3725 EARTH -0.2858
-4.3725 EASIER -0.2955
-4.3725 EASILY -0.3003
-4.0714 EASY -0.2934
-3.5943 EAT -0.2977
-4.3725 EATEN -0.3000
-4.3725 EATER -0.2954
-4.3725 EATING -0.3010
-4.3725 ECHO -0.3010
-4.3725 ED -0.3010
-4.3725 EDGE -0.2951
-4.3725 EDGED -0.3010
-3.8953 EDGES -0.2771
-4.3725 EDU -0.3010
-4.3725 EFFECT -0.2962
-4.3725 EFFECTIVE -0.3007
-4.0714 EFFECTIVELY -0.3009
-4.3725 EFFECTS -0.3006
-4.0714 EFFORT -0.2949
-4.3725 EFFORTS -0.3007
-4.0714 EGO -0.2857
-4.0714 EH -0.2858
-4.3725 EHLERS -0.3010
-4.3725 EITHER -0.3005
-4.0714 ELABORATE -0.3010
-4.3725 ELASTIC -0.3010
-4.3725 ELECTIVE -0.3010
-3.8953 ELECTRICITY -0.2957
-4.3725 ELECTRODES -0.2858
-4.3725 ELECTRONICS -0.3010
-4.0714 ELEMENT -0.2940
-4.3725 ELEMENTS -0.2951
-4.3725 ELLEN -0.3010
-3.7704 ELSE -0.2782
-4.3725 ELUCIDATE -0.2942
-4.3725 ELUSIVE -0.3010
-4.3725 EMBODIED -0.2987
-4.3725 EMBOLISM -0.2858
-4.3725 EMBRACE -0.2962
-4.3725 EMBRACED -0.3010
-4.3725 EMERGE -0.3000
-4.3725 EMOTIONAL -0.3008
-4.3725 EMPIRICAL -0.3010
-3.8953 EMPTY -0.3008
-4.0714 ENCAPSULATE -0.2968
-4.3725 ENCAPSULATED -0.3008
-3.5943 END -0.2727
-4.3725 ENDING -0.2962
-4.3725 ENDLESS -0.3008
-4.3725 ENDOWED -0.2998
-4.3725 ENDS -0.2987
-4.3725 ENDURING -0.3009
-4.3725 ENERGETIC -0.3010
-3.2933 ENERGY -0.2765
-4.3725 ENGAGE -0.2984
-4.0714 ENGAGING -0.2979
-3.7704 ENGINE -0.2944
-3.4694 ENGINEER -0.2754
-3.8953 ENGINEERING -0.2999
-4.0714 ENGINEERS -0.3005
-4.0714 ENGINES -0.2921
-4.3725 ENGLISH -0.3009
-3.7704 ENOUGH -0.2952
-4.3725 ENTERING -0.3000
-4.3725 ENTERTAIN -0.3005
-4.3725 ENTIRE -0.3010
-3.8953 ENTIRELY -0.3009
-4.3725 ENTRY -0.3004
-4.3725 EQUAL' -0.2858
-4.3725 EQUALLY -0.3010
-4.3725 EQUATE -0.2942
-4.0714 EQUATION -0.2833
-4.0714 EQUIVALENT -0.2951
-4.0714 ESPECIALLY -0.3010
-4.3725 ESSENTIAL -0.2858
-4.3725 ESSENTIALLY -0.3009
-4.3725 ESTABLISH -0.2962
-4.3725 ESTABLISHMENT -0.2970
-4.3725 ESTATE -0.2999
-3.5274 ETC -0.2847
-4.3725 ETHIC -0.2970
-4.3725 EVACUATED -0.2858
-4.3725 EVANS -0.3010
-4.3725 EVELYN -0.3009
-3.7704 EVEN -0.2985
-3.8953 EVENT -0.2847
-4.3725 EVENTS -0.3001
-3.5274 EVER -0.2991
-3.5943 EVERY -0.3002
-4.3725 EVERYBODY -0.3007
-4.0714 EVERYONE -0.3006
-3.3311 EVERYTHING -0.2831
-4.3725 EVERYWHERE -0.2858
-4.3725 EVISCERATED -0.3005
-4.3725 EXAMINATION -0.2970
-4.0714 EXAMPLE -0.2858
-4.3725 EXCEEDS -0.2992
-4.0714 EXCITED -0.3003
-4.0714 EXCITING -0.2800
-3.8953 EXECUTED -0.2984
-4.3725 EXHAUST -0.2942
-3.7704 EXHAUSTED -0.2817
-4.3725 EXHAUSTIONS -0.2858
-4.3725 EXHIBITION -0.3010
-4.0714 EXIST -0.3005
-4.3725 EXISTENCE -0.2983
-4.0714 EXISTS -0.2981
-3.7704 EXPAND -0.2928
-4.3725 EXPANDING -0.3005
-4.0714 EXPANSION -0.3010
-4.3725 EXPANSIVE -0.3010
-4.3725 EXPECT -0.2955
-4.3725 EXPECTED -0.2955
-4.3725 EXPELS -0.2987
-3.5274 EXPERIENCE -0.2784
-4.0714 EXPERIENCED -0.2921
-3.8953 EXPERIENCES -0.2977
-4.3725 EXPERIMENT -0.2858
-4.3725 EXPERIMENTAL -0.3010
-3.8953 EXPERIMENTATION -0.2988
-4.3725 EXPERIMENTING -0.2858
-3.8953 EXPERIMENTS -0.2992
-4.3725 EXPLANATION -0.2955
-4.3725 EXPLANATORY -0.3010
-4.3725 EXPLORED -0.2987
-4.3725 EXPLORING -0.3007
-4.0714 EXPOSE -0.3006
-4.3725 EXPOSED -0.3010
-4.0714 EXPOSING -0.2941
-4.3725 EXPRESSES -0.2942
-4.0714 EXPRESSION -0.2925
-4.0714 EXPRESSIVE -0.3009
-4.3725 EXTENSION -0.2970
-3.8953 EXTENT -0.2946
-4.3725 EXTERNALIZED -0.3000
-4.0714 EXTREME -0.3008
-4.3725 EXTREMELY -0.3010
-4.3725 EXTRUDED -0.3004
-3.7704 EYE -0.2939
-4.3725 F -0.2985
-4.3725 FABLE -0.3008
-3.7704 FACE -0.2719
-4.3725 FACILITIES -0.2970
-4.0714 FACILITY -0.2846
-3.6735 FACT -0.2803
-3.7704 FACTOR -0.2928
-3.8953 FACTORY -0.2923
-4.3725 FACULTY -0.3009
-3.8953 FAILURE -0.2937
-4.3725 FAILURES -0.2858
-4.3725 FAIR -0.2955
-4.3725 FAIRFAX -0.3010
-4.3725 FAIRLY -0.3010
-3.8953 FAITH -0.2952
-4.3725 FALL -0.2970
-4.3725 FALLING -0.3001
-4.3725 FALLS -0.2858
-4.3725 FALSE -0.3010
-4.3725 FALSENESS -0.2984
-4.3725 FAMILIARITY -0.2858
-4.3725 FANTASIES -0.2858
-4.0714 FANTASY -0.2815
-3.6735 FAR -0.2918
-4.3725 FARADAY -0.3010
-4.3725 FARMER -0.3004
-4.3725 FASHIONED -0.2970
-4.0714 FAST -0.2953
-4.0714 FATALISTIC -0.2855
-3.7704 FATHER -0.2792
-4.3725 FATILITY -0.2858
-4.3725 FAULT -0.3010
-4.3725 FAULTS -0.2858
-4.3725 FED -0.2984
-4.0714 FEDERAL -0.3009
-4.0714 FEEDBACK -0.3001
-3.3311 FEEL -0.2918
-3.7704 FEELING -0.2857
-4.0714 FEELINGS -0.2969
-3.8953 FEELS -0.2970
-4.3725 FEET -0.2984
-4.3725 FELT -0.3000
-4.3725 FEMALE -0.3010
-4.3725 FEMININITY -0.2858
-4.3725 FENCES -0.3003
-4.3725 FEST -0.2858
-4.0714 FICTION -0.2857
-4.0714 FIELD -0.2938
-4.3725 FIELDS -0.2858
-4.3725 FIERCE -0.3009
-4.3725 FIGHTS -0.3008
-3.5943 FIGURE -0.2989
-4.3725 FIGURES -0.2992
-4.3725 FILE -0.3009
-4.3725 FILL -0.2984
-4.3725 FILM -0.3000
-4.3725 FILTERS -0.2858
-4.3725 FINAL -0.3009
-4.3725 FINALLY -0.3010
-3.4694 FIND -0.2901
-4.3725 FINDING -0.3008
-4.3725 FINE -0.3010
-4.3725 FINEST -0.2858
-4.3725 FINGERNAILS -0.3003
-4.3725 FINISH -0.2987
-4.3725 FINISHED -0.2998
-3.4182 FIRST -0.2799
-4.3725 FISH -0.2858
-4.3725 FITTING -0.2962
-4.3725 FIX -0.3008
-4.0714 FIXED -0.3010
-4.3725 FLEETING -0.2970
-4.0714 FLESH -0.2983
-4.0714 FLIES -0.2857
-4.3725 FLIRTING -0.2998
-3.6735 FLOW -0.2802
-4.3725 FLOWING -0.2858
-4.3725 FLOWS -0.3008
-4.3725 FLUIDITY -0.2858
-4.3725 FLYWHEEL -0.2858
-3.7704 FOCUS -0.2848
-4.3725 FOIL -0.2858
-3.2585 FOLD -0.2935
-4.3725 FOLKS -0.2858
-4.0714 FOLLOW -0.2994
-4.3725 FOLLOWED -0.3006
-4.0714 FOOD -0.3010
-4.3725 FOOLS -0.2858
-4.3725 FOOTBALL -0.3010
-2.5871 FOR -0.2647
-4.3725 FORCE -0.2970
-3.1684 FORM -0.2677
-4.0714 FORMAL -0.3002
-4.3725 FORMALLY -0.3010
-4.3725 FORMATION -0.2951
-3.5943 FORMS -0.2729
-4.0714 FORTH -0.3000
-3.7704 FORWARD -0.3002
-4.0714 FOUND -0.2968
-4.0714 FRAIL -0.2970
-4.0714 FRAME -0.2858
-4.3725 FRAMING -0.3010
-3.7704 FREE -0.2988
-4.3725 FRESHMAN -0.3010
-4.3725 FRI -0.3009
-4.3725 FRIENDS -0.3003
-2.8953 FROM -0.2731
-4.3725 FRUSTRATED -0.3008
-4.3725 FRUSTRATING -0.2955
-3.5943 FUCK -0.2811
-4.3725 FUCKED -0.3007
-3.8953 FUCKER -0.2857
-3.6735 FUCKING -0.3009
-4.3725 FUELS -0.2955
-4.3725 FULL -0.2951
-3.8953 FULLY -0.3009
-3.8953 FUNCTION -0.2985
-4.0714 FUNCTIONAL -0.3009
-4.0714 FUNCTIONING -0.2999
-3.6735 FUNCTIONS -0.2747
-4.3725 FUNDAMENTAL -0.3010
-4.3725 FURNITURE -0.2989
-4.3725 FUTURE -0.3009
-4.0714 GALLERY -0.2857
-4.0714 GAO -0.2942
-4.3725 GAPS -0.2984
-4.3725 GAS -0.3010
-4.3725 GAWD -0.3010
-4.3725 GAZE -0.3010
-4.3725 GEEK -0.3010
-4.3725 GENERALITY -0.2858
-4.0714 GENERALIZATION -0.2858
-4.3725 GENERATING -0.3009
-4.0714 GENERATION -0.2949
-4.3725 GENERATIVE -0.3003
-4.3725 GENERIC -0.3009
-4.3725 GEOMETRIES -0.2858
-4.3725 GESTATION -0.2970
-4.3725 GESTURAL -0.3010
-4.0714 GESTURE -0.2831
-4.3725 GESTURES -0.2858
-3.0300 GET -0.2788
-4.0714 GETS -0.2981
-4.0714 GETTING -0.2986
-4.3725 GHBBHRLB -0.2858
-3.8953 GIANT -0.3010
-4.0714 GIVE -0.2986
-4.3725 GLOM -0.2987
-4.3725 GLOVES -0.2858
-4.3725 GLOW -0.2983
-4.3725 GLOWING -0.3009
-4.3725 GNAW -0.3003
-3.5274 GO -0.2915
-4.3725 GOAL -0.2970
-3.8953 GOD -0.2950
-3.8953 GOES -0.3001
-4.3725 GOGUEN -0.3009
-3.2933 GOING -0.2904
-4.3725 GOLD -0.2858
-4.0714 GONE -0.3004
-3.0107 GOOD -0.2859
-4.0714 GOODMACHINE -0.3010
-4.3725 GOODMACHINES -0.3010
-4.3725 GOODNIGHT -0.2858
-3.6735 GOT -0.2952
-4.3725 GOTTEN -0.3010
-4.0714 GRADUAL -0.3010
-4.3725 GRANDMOTHER -0.3008
-3.6735 GREAT -0.2854
-4.3725 GREATER -0.3008
-4.3725 GREATLY -0.3010
-4.3725 GREEN -0.3010
-4.0714 GRID -0.2881
-4.3725 GROSSLY -0.3010
-4.3725 GROUND -0.2999
-4.3725 GROUP -0.2858
-4.3725 GULL -0.2984
-4.3725 GUN -0.3010
-4.3725 GUNS -0.3010
-4.3725 HABITAT -0.3009
-3.2585 HAD -0.2854
-4.0714 HAIR -0.3007
-4.3725 HALTING -0.3010
-4.0714 HAM -0.3010
-4.3725 HAMMER -0.2858
-3.7704 HAND -0.3009
-3.7704 HANDS -0.3004
-4.3725 HANDWRITING -0.2985
-4.3725 HANDY -0.3004
-3.7704 HAPPEN -0.2850
-4.3725 HAPPENED -0.2955
-4.3725 HAPPENS -0.2858
-3.8953 HAPPY -0.2774
-3.8953 HARD -0.2947
-3.7704 HARNESS -0.2976
-4.3725 HAROLD -0.3010
-3.1420 HAS -0.2861
-4.0714 HASN'T -0.3006
-4.3725 HAT -0.3003
-4.3725 HATER -0.3010
-4.3725 HAULS -0.3010
-2.4330 HAVE -0.2468
-3.3311 HAVEN'T -0.3008
-3.5274 HAVING -0.2780
-2.8673 HE -0.2943
-4.3725 HE'LL -0.3008
-3.8953 HEAD -0.2779
-4.3725 HEALING -0.3010
-3.8953 HEALTH -0.2846
-4.3725 HEALTHILY -0.3010
-4.3725 HEAR -0.3003
-4.3725 HEARD -0.2951
-4.3725 HEART -0.3010
-4.3725 HEARTBEATS -0.3010
-4.3725 HEATH -0.3008
-4.3725 HEAVIER -0.3008
-4.0714 HEAVILY -0.2857
-4.0714 HEAVY -0.2969
-4.3725 HEIDEGGER -0.3010
-4.3725 HELD -0.3008
-4.0714 HELL -0.2855
-4.0714 HELP -0.2985
-3.6735 HER -0.2854
-3.4182 HERE -0.2699
-4.0714 HERE'S -0.2944
-4.3725 HEROIC -0.2858
-4.0714 HEROS -0.2849
-4.3725 HIDDEN -0.3010
-4.3725 HIDE -0.2858
-3.5274 HIGH -0.3008
-4.3725 HIGHER -0.3010
-4.3725 HIGHLY -0.3010
-4.3725 HIJACKS -0.3009
-4.3725 HILLS -0.2858
-3.7704 HIM -0.2857
-4.3725 HIMSELF -0.3010
-3.0300 HIS -0.2987
-4.0714 HISTORIES -0.2852
-4.0714 HISTORY -0.2829
-3.5943 HIT -0.2778
-3.8953 HOLD -0.2847
-4.3725 HOLDING -0.3005
-3.8953 HOLE -0.2804
-4.0714 HOLES -0.3000
-3.8953 HOME -0.2981
-4.3725 HONEST -0.2970
-4.3725 HONESTLY -0.3003
-4.3725 HONING -0.2992
-4.3725 HOOK -0.3007
-4.3725 HOOVER -0.3010
-4.3725 HOP -0.3010
-4.3725 HOPE -0.2858
-4.3725 HORRIBLE -0.3010
-3.8953 HORSE -0.2964
-4.3725 HORSES -0.2994
-3.8953 HOUSE -0.2850
-4.3725 HOUSEHOLDS -0.3010
-3.0300 HOW -0.2789
-4.3725 HOWEVER -0.2989
-4.3725 HUBRISTIC -0.3008
-3.6735 HUMAN -0.3004
-4.3725 HUMILITY -0.3009
-4.3725 HUNDREDS -0.2858
-4.3725 HUNGRY -0.3010
-4.3725 HURT -0.2858
-4.3725 HURTFUL -0.3010
-4.3725 HUSBAND -0.2983
-4.3725 HUSH -0.3009
-4.3725 HYPER -0.3010
-4.3725 HYPERKINETIC -0.2970
-4.3725 HYPERSATURATE -0.3010
-4.3725 HYPERTEXT -0.2962
-4.3725 HYPNOTIC -0.3010
-1.8896 I -0.2677
-4.3725 I'D -0.3000
-3.8953 I'LL -0.2996
-2.8673 I'M -0.2897
-3.2933 I'VE -0.3001
-3.3311 IDEA -0.2740
-4.3725 IDEAL -0.3010
-4.3725 IDEALS -0.3003
-3.1684 IDEAS -0.2664
-4.3725 IDENTIFICATION -0.2998
-4.3725 IDENTIFIED -0.3000
-4.3725 IDENTIFY -0.2858
-3.8953 IDENTITY -0.2828
-4.0714 IDIOCY -0.2858
-4.0714 IDIOM -0.2946
-4.3725 IE -0.3007
-3.0107 IF -0.2871
-4.3725 II -0.2858
-4.3725 III -0.2858
-3.8953 ILLUSION -0.2983
-4.3725 ILLUSIONISM -0.2984
-4.3725 ILLUSIONISTIC -0.3010
-4.3725 ILLUSIONS -0.2951
-4.3725 ILLUSTRATE -0.2962
-4.3725 ILLUSTRATION -0.3005
-3.8953 IMAGE -0.2965
-3.6735 IMAGES -0.2933
-4.0714 IMAGINARY -0.3010
-3.5943 IMAGINATION -0.2840
-4.3725 IMAGINE -0.3007
-4.3725 IMMEDIATE -0.3000
-4.3725 IMMEDIATELY -0.3010
-3.8953 IMMERSION -0.2984
-4.3725 IMMERSIVE -0.3007
-4.3725 IMPLEMENT -0.2987
-4.0714 IMPLIES -0.2963
-4.3725 IMPLODES -0.2858
-3.5274 IMPORTANT -0.2867
-4.3725 IMPOSSIBILITY -0.2951
-4.3725 IMPOSSIBLE -0.2955
-4.3725 IMPOTENCE -0.2858
-4.3725 IMPOVERISHED -0.2942
-4.3725 IMPRESSING -0.3010
-4.3725 IMPRESSIVE -0.3009
-4.3725 IMPULSE -0.2858
-4.3725 IMPULSES -0.2970
-2.2263 IN -0.2437
-4.3725 INADEQUACY -0.2970
-3.5943 INADEQUATE -0.2788
-4.3725 INCLUDE -0.3010
-4.3725 INCORPORATE -0.2985
-4.3725 INCREDIBLY -0.3010
-4.3725 INDEED -0.3010
-4.0714 INDEPENDENT -0.2950
-4.3725 INDETERMINACY -0.3009
-4.3725 INDETERMINATE -0.3010
-4.3725 INDICATOR -0.3010
-3.8953 INDISCRIMINATE -0.2858
-4.3725 INDIVIDUAL -0.3009
-4.3725 INDUCING -0.3010
-4.3725 INDUCTION -0.2858
-4.3725 INFARCTION -0.2951
-4.3725 INFINITY -0.3009
-4.3725 INFORM -0.3005
-3.5943 INFORMATION -0.2856
-4.3725 INFRASTRUCTURE -0.3003
-4.3725 INGENUITY -0.2858
-4.3725 INGESTING -0.2987
-4.3725 INHABITED -0.3010
-4.3725 INHABITING -0.2942
-4.0714 INITIAL -0.3010
-4.3725 INITIATIVE -0.2858
-4.3725 INJURY -0.3010
-4.3725 INNER -0.3009
-4.3725 INOVA -0.3010
-4.3725 INPUT -0.2858
-4.3725 INPUTS -0.2858
-3.8953 INSIDE -0.3004
-4.3725 INSOMNIAC -0.3010
-4.3725 INSPIRING -0.2858
-4.3725 INSTALLATION -0.2858
-4.0714 INSTANCE -0.3008
-4.3725 INSTILLED -0.2984
-4.3725 INSTITUTE -0.2999
-4.0714 INSTITUTION -0.2854
-4.3725 INSULATED -0.3008
-4.3725 INT'L -0.3010
-4.3725 INTEGRATED -0.3010
-4.3725 INTEGRATION -0.2951
-4.0714 INTEGRITY -0.2943
-3.6735 INTELLECTUAL -0.2855
-4.0714 INTELLIGENCE -0.2857
-4.3725 INTENDED -0.3000
-4.0714 INTENSE -0.3009
-4.3725 INTENSIVE -0.3009
-4.3725 INTENTIONAL -0.3009
-3.8953 INTENTIONS -0.2793
-4.3725 INTERCHANGEABLE -0.3010
-4.3725 INTERCONNECTIONS -0.2970
-4.3725 INTERDISCIPLINARITY -0.2951
-4.0714 INTEREST -0.2976
-3.5274 INTERESTED -0.2977
-3.5274 INTERESTING -0.2944
-3.6735 INTERESTS -0.2927
-4.0714 INTERIOR -0.3010
-4.3725 INTERLUDE -0.2858
-4.3725 INTERNALIZE -0.2985
-4.3725 INTERNALLY -0.3010
-4.3725 INTERNSHIPS -0.2858
-4.3725 INTERPENETRATION -0.3010
-4.3725 INTERPRETATION -0.2951
-4.3725 INTERROGATION -0.3010
-4.3725 INTERROGATIONS -0.2970
-4.3725 INTERRUPTIONS -0.2858
-2.8284 INTO -0.2678
-4.3725 INTRICATE -0.2858
-4.0714 INTRODUCTION -0.2955
-4.3725 INVECTIVE -0.2970
-4.3725 INVENT -0.3003
-4.0714 INVENTING -0.2901
-4.0714 INVENTION -0.2815
-4.3725 INVENTIVE -0.2954
-4.3725 INVENTIVENESS -0.3010
-4.3725 INVERTING -0.2942
-4.3725 INVESTIGATION -0.2962
-4.3725 INVESTIGATIONS -0.3003
-4.3725 INVISIBLE -0.3009
-4.3725 INVOLUNTARY -0.2858
-4.3725 IR -0.3010
-4.3725 IRRATIONAL -0.3005
-4.3725 IRRATIONALITY -0.2858
-4.3725 IRREVERSIBLE -0.3010
-4.3725 IRRITATION -0.2954
-2.2022 IS -0.2357
-4.3725 ISLAND -0.2942
-4.3725 ISN'T -0.2942
-4.3725 ISSUES -0.2985
-2.2653 IT -0.2384
-3.1964 IT'S -0.2931
-4.3725 ITERATION -0.3010
-3.0503 ITS -0.2914
-4.0714 ITSELF -0.2948
-4.3725 IV -0.2942
-4.3725 J -0.3010
-4.3725 JACK -0.3010
-4.3725 JAMES -0.2989
-4.3725 JASPER -0.3010
-4.0714 JENNIFER -0.3009
-4.3725 JENNIFERS -0.3009
-4.3725 JOB -0.3010
-4.3725 JOE -0.3009
-4.3725 JOEL -0.3010
-4.3725 JOHN -0.3010
-4.3725 JOHNS -0.3010
-4.3725 JOIN -0.3009
-4.3725 JOLLA -0.3010
-4.3725 JOSEPH -0.3010
-4.3725 JOY -0.2951
-4.3725 JUDD -0.3008
-4.3725 JUDGE -0.2858
-4.3725 JUDGMENT -0.3010
-4.3725 JUNIOR -0.2970
-3.1684 JUST -0.2922
-4.3725 JUXTAPOSITIONS -0.2984
-4.3725 KARAOKE -0.2858
-4.3725 KATE -0.2858
-3.5943 KEEP -0.3003
-4.3725 KEEPING -0.2998
-4.3725 KEEPS -0.3006
-4.3725 KEITH -0.3010
-4.3725 KELLY -0.3009
-4.3725 KEPT -0.2942
-4.3725 KETCHUP -0.3008
-3.8953 KEY -0.3008
-4.3725 KIDS -0.3003
-3.8953 KILBY -0.3001
-4.3725 KILLED -0.2998
-3.4182 KIND -0.2951
-4.3725 KINDS -0.2951
-4.3725 KINESTHETIC -0.2970
-4.3725 KNEEL -0.3003
-4.3725 KNEW -0.3008
-4.3725 KNIFE -0.3010
-3.0300 KNOW -0.2631
-3.8953 KNOWLEDGE -0.2931
-3.7704 KNOWN -0.2973
-4.0714 KNOWNS -0.2942
-4.3725 KRUGER'S -0.3009
-4.3725 KURT -0.3010
-4.0714 L -0.2962
-4.0714 LA -0.3010
-3.4694 LAB -0.2857
-4.3725 LABOR -0.3006
-4.3725 LABORED -0.3008
-4.3725 LABS -0.2954
-4.3725 LACIE -0.3008
-3.8953 LACK -0.2951
-4.3725 LAND -0.3006
-4.3725 LANDSCAPE -0.3004
-3.5274 LANGUAGE -0.2737
-4.0714 LANGUAGES -0.2953
-4.3725 LARGE -0.3010
-4.3725 LARVAE -0.2858
-4.3725 LARVAL -0.3010
-3.5274 LAST -0.2850
-4.3725 LASTED -0.3010
-4.0714 LATE -0.2857
-4.3725 LAUNDRY -0.2998
-4.3725 LAWN -0.3010
-4.3725 LAY -0.3008
-4.3725 LAYER -0.2951
-4.3725 LAYERS -0.2951
-4.3725 LE -0.3010
-4.0714 LEAD -0.3007
-4.3725 LEAKINESS -0.2989
-4.3725 LEARN -0.3006
-4.3725 LEAST -0.2985
-3.8953 LEAVE -0.3002
-4.0714 LECTURE -0.3009
-4.3725 LED -0.3002
-4.0714 LEFT -0.2991
-4.3725 LEGIBILITY -0.3010
-4.3725 LEGITIMATELY -0.3010
-4.3725 LENDER -0.2942
-3.8953 LESS -0.2800
-3.6735 LET -0.2940
-4.0714 LETS -0.3010
-3.8953 LEVEL -0.2905
-4.3725 LEVELS -0.3009
-4.0714 LIABILITIES -0.2799
-4.3725 LIBERATE -0.2989
-4.3725 LIBERATING -0.3000
-3.1684 LIFE -0.2662
-4.3725 LIFESTYLE -0.2970
-4.3725 LIGHTS -0.2999
-2.6166 LIKE -0.2628
-4.0714 LIKED -0.2954
-4.3725 LIKELY -0.2955
-4.3725 LIMITATIONS -0.2858
-4.0714 LIMITED -0.3002
-4.0714 LIMITS -0.2852
-4.3725 LIMPING -0.2858
-4.3725 LINAM -0.3010
-3.8953 LINE -0.2839
-3.7704 LINEAR -0.2968
-4.3725 LINEARITY -0.2984
-4.0714 LINES -0.2951
-4.3725 LINKED -0.3009
-4.3725 LIST -0.3005
-4.3725 LISTENER -0.2951
-4.3725 LISTENING -0.2955
-4.0714 LIT -0.3008
-4.3725 LITANY -0.3009
-4.0714 LITERALNESS -0.2831
-4.3725 LITERARY -0.3007
-4.3725 LITERATURE -0.3001
-4.3725 LITTERED -0.2998
-3.4182 LITTLE -0.3008
-3.7704 LIVING -0.2961
-4.0714 LOAN -0.3010
-3.7704 LOANS -0.3006
-4.3725 LOG -0.2984
-4.0714 LONG -0.2973
-4.3725 LONGER -0.3008
-3.4694 LOOK -0.2989
-4.0714 LOOKED -0.2906
-3.5943 LOOKING -0.2819
-4.3725 LOOP -0.3010
-3.8953 LOOSE -0.2967
-4.0714 LORD -0.2951
-4.0714 LOSE -0.2934
-4.3725 LOSING -0.2985
-3.8953 LOSS -0.2924
-4.3725 LOST -0.3009
-3.6735 LOT -0.2942
-3.4694 LOVE -0.2803
-4.3725 LOVELY -0.2858
-4.3725 LOVING -0.3010
-4.3725 LOVINGLY -0.3003
-4.3725 LUBRICATION -0.2951
-4.3725 LUG -0.2987
-4.3725 M -0.3010
-4.3725 MACGYVER -0.3010
-3.4182 MACHINE -0.2711
-3.6735 MACHINES -0.2773
-4.3725 MACHO -0.3009
-3.3311 MADE -0.2848
-4.3725 MAGGOTY -0.3000
-4.3725 MAGNETISM -0.2858
-4.3725 MAGPIE -0.2858
-4.3725 MAIL -0.3010
-4.3725 MAIN -0.3010
-4.3725 MAINFRAME -0.3010
-4.3725 MAINTENANCE -0.2951
-3.7704 MAJOR -0.2856
-2.9411 MAKE -0.2619
-3.3311 MAKES -0.2917
-3.5943 MAKING -0.2989
-4.3725 MALE -0.2858
-4.3725 MALLEABLE -0.2858
-3.6735 MAN -0.2940
-4.0714 MANAGEMENT -0.3010
-4.3725 MANAGING -0.2992
-4.3725 MANIFESTO -0.2858
-3.8953 MANNER -0.2774
-4.3725 MANSFIELD -0.2858
-4.3725 MANTICORE -0.2858
-4.0714 MANUALS -0.2857
-4.3725 MANUFACTURE -0.2970
-3.7704 MANY -0.2946
-4.3725 MARK -0.2983
-4.3725 MARRIED -0.3010
-4.3725 MASCULINE -0.3010
-4.3725 MASCULINITY -0.3010
-3.8953 MASS -0.2947
-4.3725 MASTER -0.2951
-4.3725 MASTURBATION -0.3007
-4.0714 MASTURBATORS -0.2857
-3.3311 MATERIAL -0.2692
-3.6735 MATERIALS -0.2931
-4.0714 MATH -0.3009
-4.3725 MATT -0.3010
-3.8953 MATTER -0.2923
-3.4182 MAY -0.2968
-4.3725 MAYAN -0.3009
-3.5943 MAYBE -0.2891
-2.7290 ME -0.2493
-4.3725 ME' -0.2983
-3.8953 MEAN -0.2959
-3.4694 MEANING -0.2756
-3.7704 MEANINGFUL -0.3007
-4.3725 MEANINGLESS -0.3010
-4.0714 MEANINGS -0.2925
-4.0714 MEANS -0.2857
-4.0714 MEANT -0.2787
-4.0714 MEAT -0.2967
-4.3725 MECHANIC -0.2970
-4.0714 MECHANISM -0.3010
-3.8953 MECHANISMS -0.2951
-4.0714 MEDIA -0.3000
-4.0714 MEDIATION -0.3003
-4.3725 MEDICINE -0.3003
-4.0714 MEDIUM -0.2951
-4.0714 MEDIUMS -0.2909
-4.3725 MEETS -0.3005
-4.3725 MEI -0.3010
-4.3725 MEMBERS -0.2951
-3.7704 MEMORY -0.2854
-3.8953 MEN -0.3000
-4.3725 MENAGERIE -0.2858
-4.0714 MENTION -0.2984
-4.3725 MENTIONED -0.3008
-4.3725 MESSAGE -0.3010
-3.8953 MESSY -0.2952
-4.3725 MET -0.2858
-4.3725 METHOD -0.2858
-4.3725 METHODS -0.3010
-4.3725 MICHAEL -0.3010
-4.3725 MICROPROCESSOR -0.3010
-4.3725 MIDDLE -0.3009
-4.3725 MIDST -0.2858
-3.5274 MIGHT -0.2917
-4.3725 MIKE -0.3010
-4.0714 MILITARY -0.3010
-4.3725 MILLIONS -0.2858
-3.7704 MIND -0.2844
-4.0714 MINDEDNESS -0.3010
-4.0714 MINDS -0.2853
-4.0714 MINE -0.2787
-4.3725 MINES -0.2983
-4.3725 MINIMAL -0.3010
-4.3725 MISCONCEPTION -0.2951
-4.3725 MISCONDUCT -0.3010
-4.3725 MISPLACED -0.3010
-3.6735 MISS -0.2968
-4.3725 MISSING -0.3003
-4.3725 MIX -0.2985
-4.3725 MO -0.3010
-4.3725 MODE -0.2970
-3.7704 MODELS -0.2814
-4.0714 MODERN -0.2969
-4.3725 MOMENT -0.3010
-4.3725 MOMENTS -0.3001
-4.3725 MON -0.3009
-4.3725 MONDAY -0.3003
-4.0714 MONEY -0.2966
-4.3725 MONICA -0.3010
-4.3725 MONOLITHIC -0.3008
-4.3725 MONOLOGUE -0.3010
-2.8953 MORE -0.2639
-3.7704 MORIAH -0.2971
-3.6735 MOST -0.3007
-4.0714 MOTHER -0.3009
-4.3725 MOTHERFUCKERS -0.3010
-4.3725 MOTION -0.3007
-4.3725 MOUNTAIN -0.2858
-4.0714 MOUNTAINS -0.2858
-3.8953 MOUTH -0.2794
-3.6735 MOVE -0.2916
-4.3725 MOVEMENT -0.3006
-4.0714 MOVES -0.3006
-4.3725 MOVIE -0.2970
-4.3725 MOVING -0.3010
-4.3725 MOWERS -0.2858
-4.3725 MR -0.3010
-4.3725 MTA -0.2858
-3.1172 MUCH -0.2528
-4.3725 MUCKING -0.3003
-4.3725 MULTDIMENSIONAL -0.3010
-4.3725 MULTI -0.3010
-4.3725 MULTIDIMENSIONAL -0.3009
-4.3725 MULTIMODAL -0.3010
-4.3725 MULTIPLE -0.3010
-4.3725 MULTIPLICITY -0.2858
-4.3725 MUM -0.2858
-3.5943 MUSIC -0.2974
-3.7704 MUST -0.2981
-2.3725 MY -0.2927
-4.3725 MYOPIC -0.3006
-3.5274 MYSELF -0.2758
-4.0714 MYSTERIES -0.2951
-4.3725 MYSTICAL -0.2858
-4.0714 N -0.3010
-4.3725 NAGGING -0.3010
-4.0714 NAILS -0.2831
-4.3725 NAMING -0.2858
-4.3725 NARCISSISM -0.2858
-4.3725 NARCISSISTIC -0.3009
-4.3725 NARRATING -0.3003
-4.3725 NARRATION -0.3010
-4.0714 NARRATIVE -0.2857
-4.3725 NARRATIVITY -0.3009
-3.7704 NATALIE -0.3008
-4.3725 NATURALLY -0.3010
-4.3725 NAUMAN -0.3010
-4.0714 NEAR -0.2942
-4.3725 NEARLY -0.3010
-4.3725 NECESSARILY -0.2962
-4.3725 NECK -0.2983
-3.0937 NEED -0.2830
-4.3725 NEEDED -0.2942
-4.3725 NEGATIVE -0.3010
-4.3725 NEGOTIATING -0.2998
-4.3725 NELSON -0.2962
-4.3725 NET -0.2858
-4.3725 NEUROIMAGING -0.3009
-4.3725 NEUTRAL -0.2858
-4.3725 NEUTRALITY -0.3000
-3.5943 NEVER -0.2995
-3.3311 NEW -0.2847
-4.3725 NEWMAN -0.2858
-4.3725 NEXT -0.2858
-4.3725 NIAGRA -0.3010
-3.8953 NICE -0.2906
-3.5274 NIGHT -0.2788
-3.0503 NO -0.2971
-4.3725 NOISE -0.3005
-4.3725 NOMADIC -0.3010
-4.3725 NOMART -0.3007
-4.0714 NON -0.3010
-4.3725 NONLINEAR -0.3009
-4.3725 NONSENSE -0.3000
-4.3725 NORM -0.2858
-4.3725 NORMATIVE -0.2858
-4.3725 NOSES -0.2858
-2.6016 NOT -0.2676
-4.3725 NOTE -0.2955
-4.0714 NOTEBOOKS -0.2857
-3.8953 NOTHING -0.3001
-4.3725 NOTICED -0.2985
-4.3725 NOURISHMENT -0.2970
-3.6735 NOW -0.2774
-4.3725 NOWHERE -0.2955
-4.0714 NUMBER -0.2950
-4.3725 NUMEROUS -0.3010
-4.0714 NURTURE -0.3002
-4.3725 NUZZLE -0.3003
-4.3725 NY -0.2858
-4.0714 O -0.2962
-3.4182 OBJECT -0.2697
-4.3725 OBJECTIFIED -0.2985
-3.8953 OBJECTS -0.2947
-4.3725 OBLIQUELY -0.3003
-4.3725 OBSERVATION -0.3001
-4.0714 OBSESSED -0.2998
-4.0714 OBVIOUS -0.2855
-4.3725 OCCUR -0.2999
-4.3725 OCCURS -0.2955
-1.8660 OF -0.2498
-3.8953 OFF -0.2936
-4.0714 OFFICE -0.3009
-4.0714 OFTEN -0.2994
-3.7704 OH -0.2983
-4.0714 OIL -0.2999
-4.0714 OK -0.2953
-4.3725 OKAY -0.3006
-3.7704 OLD -0.2857
-4.3725 OLDEST -0.3010
-2.6649 ON -0.2486
-4.3725 ONCE -0.2987
-2.8953 ONE -0.2714
-4.3725 ONES -0.2858
-4.0714 ONLOOKER -0.2939
-3.5943 ONLY -0.3003
-4.3725 ONTO -0.3005
-4.3725 ONTOARCHEOLOGY -0.2999
-4.3725 OPACITY -0.2858
-3.3725 OPEN -0.2752
-4.3725 OPENING -0.3010
-4.3725 OPENNESS -0.3008
-4.3725 OPERATE -0.3007
-3.8953 OPERATING -0.3000
-4.3725 OPERATIONAL -0.3010
-4.3725 OPPORTUNITIES -0.3009
-4.3725 OPPOSITES -0.3010
-4.0714 OPTIMISM -0.2951
-4.3725 OPTIONS -0.2858
-4.3725 OPTOMETRIST -0.2984
-2.7597 OR -0.2775
-4.3725 ORAL -0.3010
-4.3725 ORANGE -0.3010
-3.5943 ORDER -0.2909
-4.3725 ORDERS -0.2999
-4.3725 ORGAN -0.2985
-4.3725 ORGANIZATION -0.2858
-4.3725 ORGANIZED -0.3010
-4.3725 ORIGIN -0.2951
-4.3725 ORIGINATE -0.3007
-3.2933 OTHER -0.2939
-4.3725 OTHERS -0.3010
-4.3725 OTHERWISE -0.2858
-3.4694 OUR -0.3007
-4.3725 OURSELVES -0.3003
-2.8284 OUT -0.2552
-4.0714 OUTBOUND -0.2955
-4.0714 OUTPUT -0.2846
-4.3725 OUTPUTS -0.2951
-3.4694 OUTSIDE -0.2718
-4.3725 OUTSIDER -0.3009
-4.0714 OUTWARD -0.3009
-3.2933 OVER -0.2642
-4.3725 OVERALL -0.3009
-4.3725 OVERDEVELOPED -0.3010
-4.3725 OVERDRIVEN -0.3010
-4.3725 OVERHEAD -0.3010
-4.3725 OVERSTRESSED -0.2999
-3.2585 OWN -0.2995
-4.3725 OWNERS -0.2858
-4.3725 OWNERSHIP -0.2858
-4.3725 OXFORD -0.2858
-4.3725 PACIFIER -0.2999
-3.5943 PAINT -0.2844
-4.0714 PAINTED -0.3009
-4.3725 PAINTERS -0.3003
-3.2263 PAINTING -0.2799
-3.5943 PAINTINGS -0.2761
-4.3725 PALMER -0.3010
-4.0714 PANDA -0.2858
-4.0714 PANTS -0.2995
-4.3725 PAPERS -0.2858
-4.3725 PARADE -0.2951
-4.3725 PARALLEL -0.3010
-4.3725 PARAPHERNALIA -0.3010
-4.3725 PARODIES -0.2942
-3.4182 PART -0.2792
-4.3725 PARTIALLY -0.3010
-3.7704 PARTICULAR -0.3007
-4.3725 PARTICULARLY -0.3010
-4.3725 PARTUM -0.3010
-3.7704 PAST -0.2769
-4.3725 PATCHES -0.2858
-4.3725 PATERNITY -0.3010
-4.3725 PATH -0.2951
-4.3725 PATHOLOGICAL -0.3010
-4.3725 PATIENT -0.3009
-4.3725 PATIENTS -0.2954
-4.0714 PATTERNS -0.2999
-4.3725 PAUSING -0.3009
-4.3725 PAY -0.3006
-4.3725 PEEING -0.2858
-4.3725 PEERS -0.2858
-4.3725 PEG -0.3004
-4.3725 PENCIL -0.2970
-3.1420 PEOPLE -0.2778
-4.3725 PEOPLE'S -0.3009
-4.3725 PERCEPTION -0.3009
-4.3725 PERFECT -0.3010
-4.3725 PERFECTLY -0.3010
-4.0714 PERFORM -0.2847
-4.3725 PERFORMANCE -0.3000
-4.3725 PERFORMATIVE -0.3008
-4.3725 PERHAPS -0.2984
-4.3725 PERILOUSLY -0.3010
-4.0714 PERIOD -0.2951
-4.3725 PERISHABLE -0.3010
-3.7704 PERKINS -0.3009
-4.0714 PERMANENT -0.3010
-4.3725 PERMANENTLY -0.3010
-3.6735 PERSON -0.2946
-3.8953 PERSONAL -0.3010
-4.3725 PERSONALITY -0.3009
-4.3725 PERSONS -0.3010
-4.0714 PERSPECTIVE -0.3010
-4.0714 PERSUASIVE -0.2857
-4.3725 PERVERSE -0.2858
-4.3725 PESSIMISM -0.2951
-4.3725 PHASES -0.3008
-4.3725 PHENOMENON -0.2858
-4.3725 PHILOSOPHIZE -0.2998
-4.3725 PHILOSOPHY -0.3003
-4.3725 PHONE -0.3000
-3.5274 PHYSICAL -0.2966
-4.3725 PHYSICALITY -0.2858
-4.3725 PHYSICALLY -0.3000
-4.3725 PHYSICS -0.3010
-4.0714 PIANO -0.2857
-3.8953 PICTURE -0.2949
-4.3725 PIE -0.3003
-3.5274 PIECE -0.2754
-3.8953 PIECES -0.2951
-4.3725 PILE -0.2951
-4.3725 PILLOW -0.2970
-4.3725 PILOT -0.2858
-4.3725 PINK -0.3010
-4.3725 PINNED -0.2984
-4.3725 PIRSIG -0.3008
-4.3725 PISARRO -0.3010
-4.3725 PISS -0.2984
-4.3725 PITCHING -0.2962
-4.3725 PIVOT -0.2970
-4.3725 PLACATE -0.3010
-3.4694 PLACE -0.2823
-4.3725 PLACES -0.2858
-4.0714 PLAN -0.2944
-4.3725 PLANE -0.3009
-4.3725 PLASTIC -0.3008
-3.8953 PLAY -0.2837
-4.3725 PLAYED -0.2858
-4.3725 PLAYERS -0.2984
-3.8953 PLAYING -0.2940
-4.3725 PLEASURABLE -0.2984
-3.8953 PLEASURE -0.2800
-4.3725 PLURALITY -0.2858
-3.5943 PM -0.3009
-4.3725 POETIC -0.3009
-4.0714 POETRY -0.2796
-3.5943 POINT -0.2764
-4.3725 POINTING -0.3006
-4.3725 POLICE -0.3009
-4.3725 POLLING -0.3006
-4.3725 POLYMORPHOUSLY -0.3010
-4.0714 PONY -0.2858
-4.3725 POOLING -0.3010
-4.3725 PORTER -0.2858
-4.3725 PORTRAIT -0.2984
-4.3725 POSITION -0.2999
-4.3725 POSITIVE -0.3010
-3.8953 POSSIBILITY -0.2918
-3.8953 POSSIBLE -0.2857
-4.3725 POSSIBLY -0.2984
-3.8953 POST -0.3010
-4.3725 POSTMODERN -0.3010
-4.3725 POTENT -0.3010
-3.7704 POTENTIAL -0.2785
-3.7704 POWER -0.2829
-4.3725 POWERED -0.3009
-4.3725 POWERFUL -0.3010
-4.3725 POWERPLUS -0.3009
-4.0714 POWERS -0.2979
-4.3725 PRACTICAL -0.3010
-4.0714 PRACTICE -0.2973
-4.3725 PRACTICES -0.2970
-4.3725 PRAGMATIC -0.2858
-4.3725 PRAXIS -0.3008
-4.3725 PRECISELY -0.3003
-4.3725 PRECONCEIVED -0.3010
-4.3725 PREFER -0.2942
-4.3725 PREREQUISITE -0.2999
-4.3725 PRESCRIBE -0.3010
-4.3725 PRESCRIBED -0.3009
-3.8953 PRESENT -0.2846
-4.0714 PRESENTATION -0.2894
-4.3725 PRESENTING -0.2942
-4.3725 PRESSURE -0.3010
-4.3725 PRETENSIONS -0.2955
-3.8953 PRETTY -0.3010
-4.3725 PREVIOUS -0.3010
-4.3725 PRINCIPAL -0.2955
-4.3725 PRIOR -0.2955
-4.3725 PRIORITIES -0.2970
-4.3725 PRIVACY -0.2970
-4.3725 PRIVATE -0.2858
-4.3725 PRIVILEGE -0.3010
-4.3725 PRIZE -0.3003
-4.3725 PROACTIVE -0.3010
-4.3725 PROBABILISTIC -0.3009
-3.5274 PROBLEM -0.2801
-3.7704 PROBLEMS -0.2923
-4.3725 PROCEED -0.2984
-3.3311 PROCESS -0.2721
-4.3725 PROCESSES -0.3008
-4.3725 PRODUCE -0.3000
-4.3725 PRODUCING -0.3010
-4.0714 PRODUCT -0.2950
-3.5943 PRODUCTION -0.2916
-4.0714 PRODUCTIVE -0.2858
-4.0714 PRODUCTS -0.2851
-4.3725 PROFERRED -0.3010
-4.3725 PROFESSIONAL -0.3010
-3.5274 PROGRAM -0.2755
-4.0714 PROGRAMMATIC -0.3002
-4.3725 PROGRAMMER -0.3008
-3.5274 PROGRAMMING -0.2766
-4.3725 PROGRAMS -0.3008
-4.0714 PROGRESS -0.2850
-4.3725 PROGRESSION -0.2858
-3.2933 PROJECT -0.2684
-3.4182 PROJECTS -0.2723
-4.3725 PROLIFERATING -0.3010
-4.0714 PROLIFERATION -0.2796
-4.3725 PROMISSORY -0.3010
-4.3725 PROOF -0.2951
-4.3725 PROTECT -0.2970
-4.3725 PROTECTED -0.3010
-4.3725 PROTECTORS -0.3003
-4.3725 PROUD -0.2951
-4.3725 PSEUDO -0.3010
-4.3725 PSYCHOLOGICAL -0.3010
-4.3725 PSYCHOLOGY -0.2951
-4.0714 PUBLIC -0.3008
-4.0714 PULL -0.2985
-4.3725 PUMP -0.2970
-4.0714 PUNCHING -0.3004
-4.3725 PUPA -0.3010
-4.3725 PURE -0.3010
-4.3725 PURPOSEFUL -0.3010
-3.7704 PUSH -0.2999
-4.3725 PUSHES -0.3010
-4.3725 PUSHING -0.3005
-3.3725 PUT -0.2971
-4.0714 PUTRESCENT -0.3000
-4.0714 PUTS -0.3004
-4.3725 PUTTING -0.2962
-4.3725 PUZZLE -0.3007
-4.3725 QUASI -0.3010
-3.6735 QUESTION -0.3001
-4.3725 QUESTIONED -0.2942
-3.8953 QUESTIONS -0.2764
-3.8953 QUICKLY -0.2846
-4.3725 QUILTING -0.3010
-4.3725 QUIT -0.3009
-4.0714 QUITE -0.3010
-4.3725 QUOTING -0.3005
-4.0714 RABBIT -0.3010
-4.3725 RACCOON -0.2858
-4.3725 RACES -0.3010
-4.3725 RADIATING -0.3007
-4.3725 RADIO -0.2858
-4.3725 RAGGED -0.3010
-4.3725 RAGGEDY -0.3010
-4.3725 RAISING -0.2962
-4.3725 RAN -0.3010
-4.0714 RANGE -0.3001
-4.3725 RAPED -0.2858
-3.4182 RATHER -0.2951
-4.3725 RATION -0.3004
-4.3725 RATIONAL -0.3010
-4.3725 RATIONALITY -0.2970
-4.3725 RAUSCHENBERG -0.3010
-4.0714 RE -0.3010
-4.3725 REACTING -0.2955
-4.0714 REACTION -0.2955
-3.8953 READ -0.2996
-4.3725 READERS -0.2951
-4.3725 READILY -0.2997
-3.7704 READING -0.2931
-4.0714 READY -0.2800
-3.1964 REAL -0.2846
-3.5274 REALITY -0.2751
-4.3725 REALIZATION -0.3007
-4.3725 REALIZE -0.2985
-3.1684 REALLY -0.2878
-3.7704 REASON -0.2934
-4.3725 REASSEMBLING -0.2987
-4.3725 RECAPTURE -0.2985
-4.3725 RECEIVES -0.3010
-4.3725 RECENT -0.3010
-4.3725 RECIPROCAL -0.3010
-4.3725 RECIPROCITY -0.3010
-4.3725 RECOGNIZANCE -0.2858
-4.3725 RECOGNIZE -0.2985
-4.3725 RECOGNIZED -0.3008
-4.3725 RECONSIDER -0.2992
-4.3725 RECOVERY -0.2858
-4.3725 RECURSION -0.3010
-4.3725 REDECLARATION -0.2951
-4.3725 REDUCE -0.2955
-4.3725 REDUCING -0.3006
-4.3725 REDUCTIVE -0.3010
-4.3725 REDUNDANT -0.3009
-4.3725 REFER -0.2955
-4.0714 REFERENCE -0.3010
-4.3725 REFERENTIAL -0.3007
-4.3725 REFLECTION -0.3009
-4.0714 REFLECTIVE -0.3006
-4.3725 REFLECTS -0.3006
-4.3725 REFLEXIVENESS -0.2951
-4.3725 REFRAMED -0.3008
-4.3725 REFUGE -0.2984
-4.3725 REFUSAL -0.2955
-4.3725 REFUSE -0.3006
-4.3725 REGRET -0.3005
-4.0714 REGULAR -0.3009
-4.3725 REINVENTIONS -0.3010
-4.3725 REJECT -0.2962
-4.3725 REJECTION -0.2858
-4.3725 RELAPSE -0.2970
-4.3725 RELAPSES -0.2858
-4.0714 RELATE -0.2955
-4.3725 RELATES -0.2955
-4.0714 RELATION -0.2955
-4.3725 RELATIONS -0.2858
-3.7704 RELATIONSHIP -0.2954
-4.3725 RELATIONSHIPS -0.2955
-3.8953 RELATIVELY -0.3009
-4.3725 RELEASED -0.3010
-4.3725 RELEASING -0.2858
-4.3725 RELENTLESSLY -0.3010
-4.3725 RELEVANCE -0.2951
-4.3725 RELIANT -0.3008
-4.3725 RELIES -0.2951
-4.0714 RELIGIOUS -0.3008
-4.3725 REMACHINING -0.2942
-4.3725 REMAIN -0.3008
-4.0714 REMEMBER -0.3002
-4.3725 REMINDER -0.2951
-4.3725 REMOVED -0.3000
-4.3725 RENDER -0.3006
-4.3725 RENDERS -0.3010
-4.3725 REPAYED -0.3010
-4.3725 REPAYMENT -0.2951
-4.3725 REPEATING -0.2962
-4.3725 REPLACE -0.3010
-4.3725 REPLACING -0.2942
-4.3725 REPLIED -0.2858
-4.3725 REPRESENT -0.3008
-3.7704 REPRESENTATION -0.2834
-4.0714 REPRESENTATIONS -0.2925
-3.8953 REQUIRE -0.2949
-3.7704 RESEARCH -0.2951
-4.3725 RESEARCHED -0.3009
-4.3725 RESEMBLE -0.3009
-4.0714 RESISTANCE -0.2800
-4.3725 RESISTED -0.3008
-4.0714 RESOLVED -0.2998
-4.3725 RESPONDER -0.3009
-4.3725 RESPONSE -0.3006
-4.3725 RESPONSES -0.2955
-4.3725 RESPONSIBILITY -0.2984
-3.8953 RESPONSIBLE -0.2788
-4.3725 RESPONSIVE -0.3010
-4.3725 REST -0.2951
-4.0714 RESTRAINT -0.2998
-4.3725 RESTS -0.3010
-4.3725 RESULT -0.2951
-4.3725 RESULTS -0.3008
-4.3725 RETAINED -0.3007
-4.3725 RETRACTION -0.3010
-4.3725 RETREAT -0.2858
-4.3725 REVEALED -0.2858
-4.3725 REVEALS -0.3010
-4.0714 REVELATION -0.2951
-4.3725 REVERENCE -0.2999
-4.3725 REVERSION -0.2955
-4.3725 REVIEW -0.2858
-4.3725 REVISIONIST -0.2858
-4.3725 REVOLUTION -0.2858
-4.3725 REVVING -0.3007
-4.3725 RHETORIC -0.3010
-4.3725 RHINDERN -0.3009
-4.3725 RHODES -0.3010
-3.8953 RICH -0.2969
-4.3725 RICHARD -0.3010
-4.3725 RICHEST -0.3007
-4.0714 RID -0.2951
-4.3725 RIDICULOUS -0.3010
-4.3725 RIFLE -0.2962
-3.8953 RIGHT -0.2856
-4.3725 RIGOR -0.2998
-3.8953 RISK -0.2796
-4.3725 RISKY -0.2984
-3.6735 ROBERT -0.2786
-4.3725 ROBUST -0.3000
-4.0714 ROCK -0.2857
-3.7704 ROCKS -0.2968
-4.0714 ROLE -0.3010
-4.3725 ROLES -0.2998
-3.8953 ROMANCE -0.2955
-4.3725 RON -0.3010
-4.0714 ROOM -0.2815
-4.0714 ROOTED -0.3010
-4.0714 ROTE -0.3010
-4.3725 ROUND -0.3010
-4.3725 RULED -0.3008
-4.3725 RULES -0.3001
-4.3725 RUMSFELD -0.2858
-3.8953 RUN -0.2955
-4.0714 RUNNING -0.3007
-4.3725 RX -0.3010
-4.0714 S -0.2857
-4.3725 SACRIFICE -0.2858
-4.0714 SAD -0.2831
-4.3725 SADNESS -0.2858
-4.0714 SAID -0.2984
-4.3725 SALVATION -0.3007
-3.5943 SAME -0.2994
-4.3725 SAN -0.3010
-4.3725 SANDRA -0.3010
-4.0714 SANDWICH -0.2998
-4.0714 SARAH -0.3010
-4.0714 SAT -0.3004
-4.3725 SATISFACTORY -0.3008
-4.3725 SATISFY -0.3010
-3.8953 SATISFYING -0.2955
-4.3725 SAVAGENESS -0.3010
-3.6735 SAW -0.2728
-3.3725 SAY -0.2750
-4.3725 SCALES -0.2999
-4.3725 SCARY -0.2858
-4.3725 SCHOLARS -0.2942
-3.4694 SCHOOL -0.2838
-3.4694 SCIENCE -0.2806
-3.8953 SCIENTIFIC -0.2969
-3.7704 SCIENTIST -0.2829
-4.3725 SCIENTIST'S -0.3010
-4.0714 SCIENTISTS -0.2979
-4.3725 SCOTT -0.3010
-4.3725 SCRIPT -0.2858
-4.3725 SCULPT -0.2942
-3.8953 SCULPTURAL -0.3010
-4.0714 SCULPTURE -0.3007
-4.3725 SCWHITTERS -0.2858
-4.3725 SD -0.3010
-4.3725 SEA -0.3010
-4.3725 SEAMLESS -0.3009
-3.8953 SEARCH -0.2996
-4.3725 SEARCHING -0.2999
-4.3725 SEASHELL -0.3010
-4.3725 SECONDLY -0.2954
-4.0714 SECRET -0.3008
-3.2263 SEE -0.2690
-3.6735 SEEING -0.3001
-4.3725 SEEK -0.2962
-4.3725 SEEKING -0.2942
-3.8953 SEEM -0.2955
-4.0714 SEEMED -0.2997
-3.8953 SEEMS -0.2943
-4.0714 SEEN -0.2948
-4.3725 SEES -0.2962
-4.3725 SEGMENTATION -0.3010
-3.1172 SELF -0.2997
-4.3725 SEND -0.3002
-4.3725 SENIOR -0.3010
-4.0714 SENSATION -0.2998
-3.2263 SENSE -0.2679
-4.3725 SENSELESS -0.3010
-4.3725 SENSES -0.2858
-4.3725 SEPARATE -0.3003
-4.3725 SEQUENTIALLY -0.2984
-3.6735 SERIES -0.2943
-3.7704 SERIOUS -0.3007
-4.3725 SERIOUSLY -0.3008
-4.3725 SERVICER -0.2999
-4.3725 SERVICES -0.2954
-3.6735 SET -0.2921
-4.0714 SEX -0.2995
-4.3725 SEXUAL -0.3010
-4.0714 SEXUALIZED -0.2857
-4.0714 SEXY -0.3007
-4.3725 SHADY -0.3010
-4.0714 SHAMANISM -0.3002
-4.0714 SHAMANISTIC -0.3009
-4.3725 SHAPE -0.2951
-4.3725 SHAPES -0.3001
-4.3725 SHARE -0.3004
-3.3725 SHE -0.2984
-4.3725 SHE'D -0.3008
-4.3725 SHEETS -0.2970
-4.0714 SHELDON -0.3009
-4.3725 SHENG -0.2942
-4.3725 SHIFTED -0.2954
-4.3725 SHINY -0.3010
-3.2585 SHIT -0.2782
-4.3725 SHITTY -0.3010
-4.3725 SHOCK -0.2858
-4.3725 SHONE -0.2858
-4.0714 SHOOT -0.2981
-4.3725 SHOOTING -0.3010
-3.8953 SHORT -0.3009
-3.2585 SHOULD -0.2961
-4.3725 SHOULDN'T -0.2994
-3.6735 SHOW -0.2835
-4.3725 SHOWN -0.3003
-4.3725 SHOWS -0.2858
-4.3725 SHUT -0.2987
-4.3725 SICKENING -0.2955
-4.0714 SICKNESS -0.2943
-4.3725 SIFT -0.2992
-4.0714 SIGN -0.2951
-4.3725 SILLY -0.2970
-3.8953 SIMPLE -0.3005
-4.3725 SINE -0.2970
-4.0714 SING -0.2955
-4.3725 SINGLE -0.3009
-4.3725 SINGULAR -0.3007
-4.3725 SIT -0.3001
-4.3725 SITE -0.2951
-4.0714 SITTING -0.2984
-4.3725 SITUATE -0.3009
-4.0714 SITUATION -0.2951
-4.3725 SITUATIONS -0.2987
-4.0714 SIX -0.3010
-4.3725 SKIM -0.3008
-4.3725 SKIN -0.2858
-4.3725 SLAYTON -0.3010
-4.3725 SLEEP -0.3007
-4.3725 SLEEPING -0.2998
-4.3725 SLEPT -0.2998
-4.3725 SLIM -0.3010
-4.3725 SLIPPERY -0.3010
-4.3725 SLOPPY -0.3010
-4.0714 SLOW -0.3010
-4.0714 SLOWING -0.2942
-4.3725 SLOWLY -0.2942
-4.0714 SMALL -0.3010
-4.3725 SMART -0.3010
-4.3725 SMOKER -0.2858
-4.3725 SMOOTHLY -0.3010
-3.8953 SNAKE -0.2857
-4.3725 SNAPSHOT -0.2985
-4.3725 SNIFF -0.3003
-4.3725 SNOOTY -0.3010
-2.7814 SO -0.2723
-4.0714 SOBBING -0.2914
-4.3725 SOCIAL -0.3010
-4.3725 SOCIETY -0.3010
-4.3725 SOCK -0.3010
-4.3725 SOCKS -0.3006
-3.8953 SOFTWARE -0.2847
-4.3725 SOIL -0.2858
-4.3725 SOLDIERS -0.2970
-3.7704 SOLUTION -0.2925
-4.3725 SOLVER -0.3009
-4.3725 SOLVING -0.3010
-2.9411 SOME -0.2931
-3.8953 SOMEONE -0.2963
-4.3725 SOMEONE'S -0.3010
-2.9253 SOMETHING -0.2586
-3.4694 SOMETIMES -0.2832
-4.0714 SOMEWHERE -0.3003
-4.0714 SONG -0.2954
-4.3725 SONS -0.2970
-4.3725 SOON -0.3000
-4.3725 SORE -0.3009
-3.3725 SORT -0.2927
-4.3725 SOUGHT -0.2955
-4.3725 SOUL -0.3010
-4.3725 SOURCE -0.3008
-3.2933 SPACE -0.2694
-4.3725 SPACES -0.3001
-4.3725 SPANIEL -0.2858
-4.0714 SPECIFIC -0.3007
-4.3725 SPECIFICITY -0.2985
-4.3725 SPECIMEN -0.2942
-4.3725 SPEECH -0.2970
-3.8953 SPEED -0.2988
-4.0714 SPEND -0.2996
-4.0714 SPILLAGE -0.2999
-4.0714 SPIN -0.3010
-4.3725 SPINE -0.2858
-4.3725 SPIRITS -0.2983
-4.3725 SPIRITUAL -0.3010
-4.3725 SPIT -0.3010
-4.3725 SPITTING -0.2858
-4.3725 SPORTING -0.3010
-4.3725 SPORTS -0.3010
-4.3725 SPRING -0.3007
-4.3725 SPRINGER -0.3010
-4.0714 SQUARE -0.2857
-4.3725 SRPALMER -0.3010
-4.3725 STABLE -0.3010
-4.3725 STAFFORD -0.2970
-4.3725 STAGE -0.2951
-4.3725 STAKE -0.2984
-4.3725 STAKES -0.3010
-4.3725 STALKER -0.2858
-4.0714 START -0.2988
-4.3725 STARTED -0.3008
-4.0714 STATE -0.2951
-3.7704 STATEMENT -0.2915
-4.3725 STATES -0.2951
-4.3725 STATISTICAL -0.3010
-4.3725 STATUS -0.2951
-4.3725 STAY -0.3009
-4.0714 STEADY -0.3010
-4.3725 STEPHEN -0.3010
-4.3725 STEPS -0.3001
-4.3725 STICK -0.2987
-4.3725 STIFLING -0.2942
-3.6735 STILL -0.2834
-4.3725 STIMULATION -0.2962
-4.3725 STOP -0.3009
-4.3725 STOPPED -0.3009
-4.3725 STORAGE -0.2858
-4.3725 STORIES -0.2951
-3.5274 STORY -0.2883
-4.3725 STRAIGHTFORWARD -0.3010
-4.3725 STRATEGY -0.3005
-4.0714 STRENGTH -0.2909
-4.3725 STRESS -0.2992
-4.0714 STRIKE -0.3002
-4.3725 STROKE -0.3010
-4.3725 STROKES -0.2983
-3.8953 STRONG -0.3006
-4.3725 STRONGLY -0.3010
-3.4182 STRUCTURE -0.2738
-3.6735 STRUCTURES -0.2789
-4.3725 STRUCTURING -0.3010
-4.3725 STRUGGLE -0.2858
-4.3725 STUCK -0.2998
-4.0714 STUDENT -0.3009
-4.3725 STUDENTS -0.3005
-4.3725 STUDIES -0.2970
-3.7704 STUDIO -0.2916
-3.6735 STUFF -0.2980
-4.0714 STUPID -0.2857
-3.8953 SUBJECT -0.2795
-4.3725 SUBJECTIVE -0.3008
-4.3725 SUBJECTS -0.2985
-4.3725 SUBLIMATED -0.3010
-4.3725 SUBSERVIENT -0.2955
-4.3725 SUBSTANCE -0.3009
-4.3725 SUBSTANCES -0.2858
-3.8953 SUCCESS -0.2850
-4.3725 SUCCESSFUL -0.3010
-3.4694 SUCH -0.2878
-4.3725 SUCK -0.3006
-4.3725 SUCKED -0.3001
-4.3725 SUCKLING -0.3003
-4.3725 SUDDEN -0.3008
-4.3725 SUHA -0.2858
-3.8953 SUMMER -0.2831
-4.3725 SUMMON -0.2962
-4.3725 SUNDAY -0.3010
-4.3725 SUPERSTITION -0.3010
-4.3725 SUPPOSE -0.2954
-4.0714 SURE -0.2894
-4.0714 SURFACE -0.2881
-4.3725 SURGERIES -0.2858
-4.0714 SURGERY -0.2850
-4.3725 SURPRISE -0.3008
-4.3725 SURPRISED -0.3008
-4.3725 SURPRISING -0.2962
-4.3725 SUSSMAN -0.2970
-4.3725 SWEET -0.3010
-4.3725 SWOLLEN -0.3000
-4.3725 SYMMETRY -0.2951
-4.3725 SYNDICATE -0.2858
-4.3725 SYNERGY -0.2858
-3.8953 SYNTHESIS -0.2858
-4.3725 SYRUPY -0.2858
-3.8953 SYSTEM -0.2927
-3.8953 SYSTEMS -0.2956
-4.3725 T -0.2858
-4.3725 TABLE -0.2998
-4.3725 TABLECLOTH -0.3010
-4.3725 TACTICS -0.2858
-3.3311 TAKE -0.2932
-3.8953 TAKEN -0.3006
-3.8953 TAKES -0.2972
-4.3725 TAKING -0.2962
-4.3725 TALBOT -0.2942
-4.3725 TALENT -0.3003
-3.7704 TALK -0.2793
-4.0714 TALKED -0.2914
-3.5274 TALKING -0.2780
-4.3725 TANK -0.3009
-4.3725 TANNER'S -0.3010
-3.7704 TAPE -0.2750
-4.3725 TARGET -0.3007
-3.8953 TARGETS -0.2857
-4.0714 TASTE -0.2855
-4.3725 TASTEFUL -0.3010
-4.3725 TASTEFULLY -0.3010
-4.3725 TAUTOLOGICAL -0.3010
-4.3725 TAUTOLOGY -0.3010
-4.3725 TEAT -0.2858
-4.3725 TECHNOLOGICAL -0.3008
-3.5274 TECHNOLOGY -0.2827
-4.0714 TEETH -0.2857
-4.0714 TELL -0.2942
-4.3725 TEMPERATURES -0.2858
-4.0714 TEN -0.3010
-4.3725 TENDER -0.2858
-4.3725 TENS -0.2858
-4.3725 TENSIONS -0.2985
-4.3725 TENT -0.2858
-4.0714 TERM -0.2857
-4.3725 TERMED -0.3008
-4.0714 TERMITE -0.2850
-4.3725 TEST -0.2858
-4.3725 TESTING -0.2992
-3.5274 TEXT -0.2855
-4.0714 TH -0.3010
-3.2585 THAN -0.2847
-4.3725 THANKYOU -0.3010
-2.2326 THAT -0.2404
-4.0714 THAT'S -0.3003
-3.6735 THATS -0.2910
-1.8066 THE -0.2806
-4.0714 THEATER -0.3003
-3.2933 THEIR -0.2995
-3.1964 THEM -0.2747
-4.3725 THEME -0.2951
-3.8953 THEMSELVES -0.3009
-3.2263 THEN -0.2748
-4.3725 THEODOR -0.3010
-4.3725 THEORIES -0.3003
-3.8953 THEORY -0.2788
-4.3725 THERAPEUTIC -0.3010
-2.7927 THERE -0.2573
-3.7704 THERE'S -0.2962
-2.8953 THESE -0.2977
-4.0714 THESIS -0.3008
-2.9101 THEY -0.2927
-3.8953 THEY'RE -0.3003
-3.2585 THING -0.2707
-2.7704 THINGS -0.2480
-2.7492 THINK -0.2509
-4.3725 THINKER -0.3003
-3.2933 THINKING -0.2809
-4.3725 THINKS -0.2985
-4.3725 THIRD -0.3008
-2.6166 THIS -0.2516
-3.8953 THOSE -0.3003
-3.6735 THOUGH -0.2922
-3.4182 THOUGHT -0.2740
-3.6735 THOUGHTS -0.2993
-4.3725 THOUSANDS -0.2858
-4.0714 THREADS -0.2978
-4.3725 THREAT -0.3010
-3.8953 THREE -0.3010
-3.1684 THROUGH -0.2763
-4.3725 THROWER -0.2858
-4.0714 THROWING -0.3010
-4.3725 THRUST -0.3004
-4.3725 THUS -0.3009
-4.3725 TICKLE -0.3006
-4.0714 TIE -0.2953
-4.3725 TIENAMEN -0.3010
-4.3725 TILL -0.3010
-3.0714 TIME -0.2662
-3.7704 TIMES -0.2841
-3.8953 TINKERER -0.3006
-4.3725 TINY -0.3010
-4.3725 TIRED -0.3009
-4.3725 TITLES -0.3009
-4.3725 TJHSST -0.2955
-1.8983 TO -0.2362
-3.8953 TODAY -0.2858
-3.3725 TOGETHER -0.2663
-4.3725 TOLD -0.3007
-4.3725 TOMORROW -0.2858
-4.0714 TONE -0.3008
-3.1964 TOO -0.2833
-4.3725 TOOK -0.3005
-4.3725 TOOLS -0.2858
-4.0714 TOP -0.2909
-4.3725 TORPOR -0.3007
-3.5943 TOTAL -0.2960
-3.8953 TOTALLY -0.2958
-4.3725 TOWN -0.2858
-4.3725 TOYOTA -0.3010
-4.3725 TOYS -0.2858
-4.3725 TRACING -0.2999
-4.3725 TRADE -0.2984
-4.3725 TRADITION -0.2858
-3.6735 TRADITIONAL -0.3000
-4.3725 TRADITIONALLY -0.3010
-4.3725 TRAFFIC -0.2984
-4.3725 TRAIL -0.2951
-4.3725 TRAINS -0.2951
-4.3725 TRANSCENDING -0.2942
-4.0714 TRANSFERENCE -0.2796
-4.0714 TRANSFORMATIONS -0.2796
-4.3725 TRANSFORMS -0.2942
-4.3725 TRANSGRESSIONS -0.3004
-4.3725 TRANSGRESSIVE -0.2858
-4.3725 TRANSMISSION -0.3010
-4.3725 TRANSMITS -0.3009
-4.3725 TRANSMITTER -0.3010
-4.3725 TRANSPARENCY -0.3009
-4.3725 TRASMUTATION -0.2858
-3.8953 TRAUMA -0.2953
-4.3725 TRENDS -0.2970
-4.3725 TRIANGLES -0.2858
-4.3725 TRIANGULAR -0.3000
-4.3725 TRICK -0.3010
-4.3725 TRIED -0.2955
-4.3725 TRIES -0.2955
-4.3725 TRILLIONS -0.2858
-4.3725 TRISTAN -0.3010
-4.3725 TRITE -0.2858
-4.3725 TROPE -0.2951
-4.3725 TROUBLING -0.2858
-4.0714 TRUE -0.2963
-3.7704 TRULY -0.2952
-3.8953 TRUST -0.2977
-3.8953 TRUTH -0.2849
-4.0714 TRY -0.2945
-3.6735 TRYING -0.2955
-4.3725 TUES -0.3009
-4.0714 TUESDAY -0.2851
-4.3725 TUMBLING -0.3004
-4.3725 TUNDRA -0.2858
-4.3725 TURBOMACHINERY -0.2858
-4.3725 TURN -0.3010
-4.3725 TURNED -0.3001
-3.5943 TWO -0.2982
-4.0714 TWOMEY -0.2858
-4.3725 TX -0.2858
-3.5943 TYPE -0.2908
-3.8953 TYPICAL -0.2968
-4.3725 TYPING -0.2858
-4.3725 TYSON'S -0.3000
-4.3725 UBIQUITOUS -0.3009
-4.3725 UCSD -0.3010
-4.3725 UGG -0.3010
-4.3725 UGH -0.2970
-4.3725 ULLMAN -0.3010
-4.3725 ULTIMATELY -0.3007
-4.3725 UNABLE -0.3003
-4.3725 UNASSAILABLE -0.3009
-4.3725 UNAVOIDABLE -0.3010
-4.3725 UNAWARE -0.2951
-4.3725 UNCOMPROMISINGLY -0.3010
-4.3725 UNCONDITIONAL -0.3009
-4.3725 UNCONSIDERED -0.3010
-4.3725 UNCOVERABLE -0.3010
-4.0714 UNDER -0.2923
-4.3725 UNDERCUT -0.3010
-4.3725 UNDERGRAD -0.3007
-4.3725 UNDERGRADUATE -0.3010
-3.8953 UNDERLYING -0.3008
-3.7704 UNDERSTAND -0.2955
-3.7704 UNDERSTANDING -0.2779
-3.8953 UNDERSTOOD -0.2815
-4.3725 UNDESIRABLE -0.3010
-4.3725 UNDISCIPLINED -0.3010
-4.3725 UNEDITED -0.3008
-4.0714 UNFINISHED -0.3002
-4.3725 UNFOLDING -0.3010
-4.0714 UNFORTUNATELY -0.2954
-4.3725 UNIFIED -0.3007
-4.3725 UNIFORM -0.2858
-4.3725 UNIFY -0.2858
-4.0714 UNION -0.2845
-4.0714 UNKNOWN -0.3010
-4.0714 UNKNOWNS -0.2965
-4.3725 UNLEARN -0.3008
-4.0714 UNLESS -0.2949
-4.3725 UNLIKE -0.2942
-4.3725 UNPLUGGED -0.2970
-4.3725 UNPROTECTED -0.3006
-4.3725 UNRECONSTRUCTED -0.3010
-4.3725 UNSAFE -0.3003
-4.3725 UNSQUEAMISHNESS -0.2858
-4.3725 UNTANGLE -0.2858
-3.7704 UNTIL -0.2727
-4.3725 UNWILLING -0.2955
-3.0937 UP -0.2594
-4.0714 UPON -0.3006
-4.0714 UPSET -0.2856
-4.3725 UPSETTING -0.2954
-4.0714 UPSTAIRS -0.3006
-4.3725 UR -0.3009
-3.5943 US -0.2841
-4.0714 USE -0.2932
-3.8953 USED -0.2944
-3.8953 USING -0.2942
-4.3725 USUALLY -0.3010
-4.0714 UTOPIAN -0.2969
-4.3725 UTTER -0.3010
-4.3725 UTTERANCE -0.2951
-3.8953 V -0.2857
-4.3725 VA -0.3000
-4.3725 VACILLATION -0.2858
-3.6735 VAF -0.3009
-4.3725 VALIDATING -0.3010
-4.3725 VALUABLE -0.2998
-3.7704 VALUE -0.2951
-4.3725 VALUED -0.3009
-4.3725 VANTAGE -0.3009
-4.3725 VARIABLES -0.3004
-4.3725 VARYING -0.3010
-4.3725 VASTNESS -0.2951
-4.3725 VECTOR -0.3009
-4.3725 VELOCITY -0.2858
-4.3725 VENTILATED -0.3008
-4.3725 VENUES -0.2955
-3.8953 VERBAL -0.3010
-4.3725 VERDANT -0.3010
-4.0714 VERGING -0.3001
-4.0714 VERONIKA -0.3010
-4.3725 VERSION -0.2951
-4.3725 VERSUS -0.3009
-3.2585 VERY -0.2999
-4.3725 VESTIBULAR -0.3010
-4.3725 VIAGRA -0.3009
-4.0714 VIDEO -0.3010
-4.3725 VIEW -0.2951
-3.8953 VIEWER -0.2939
-4.3725 VIEWING -0.2951
-4.0714 VISIBLE -0.2984
-4.3725 VISION -0.2858
-4.3725 VISIONS -0.2858
-3.7704 VISUAL -0.3000
-4.3725 VISUALIZATION -0.2984
-4.3725 VOCABULARY -0.3010
-4.3725 VOLLMANN'S -0.2999
-3.5943 VS -0.3008
-3.7704 VV -0.3009
-4.0714 VVV -0.3010
-4.0714 W -0.3010
-4.3725 WAKING -0.3010
-4.0714 WALK -0.2855
-4.3725 WALKABOUT -0.2858
-4.3725 WALKING -0.3008
-4.3725 WALLED -0.3010
-4.3725 WALLET -0.2970
-4.3725 WALLS -0.2858
-4.0714 WALT -0.3010
-4.3725 WALTER -0.2858
-4.3725 WANDER -0.3010
-4.3725 WANDERS -0.2942
-3.0300 WANT -0.2907
-3.8953 WANTED -0.2955
-4.3725 WANTING -0.2955
-4.3725 WANTS -0.2955
-4.3725 WAPITI -0.3004
-4.0714 WAR -0.3009
-4.3725 WARD -0.2985
-4.3725 WARHOL -0.2970
-4.3725 WARMTH -0.2951
-4.3725 WARNING -0.3010
-4.3725 WARRIOR -0.3010
-2.7704 WAS -0.2686
-4.3725 WASH -0.3000
-4.3725 WASHED -0.3010
-4.3725 WASN'T -0.3008
-4.3725 WASTEFUL -0.3007
-4.3725 WATCH -0.2962
-3.8953 WATCHING -0.2937
-4.3725 WATER -0.2858
-4.3725 WATERCOLOR -0.3009
-4.3725 WATERFALLS -0.3003
-3.3311 WAY -0.2735
-4.3725 WAYS -0.2951
-3.1172 WE -0.2950
-3.8953 WE'RE -0.3009
-4.3725 WEAR -0.2962
-4.3725 WEARING -0.3010
-4.3725 WEAVE -0.3008
-4.3725 WED -0.3004
-4.0714 WEIRD -0.3010
-4.3725 WELFARE -0.2951
-3.5943 WELL -0.2856
-4.3725 WENT -0.3009
-3.4182 WERE -0.2907
-2.7492 WHAT -0.2655
-4.3725 WHATEVER -0.3007
-4.0714 WHATS -0.2937
-3.1684 WHEN -0.2924
-4.3725 WHENEVER -0.3007
-3.4182 WHERE -0.2874
-4.0714 WHETHER -0.2997
-3.0300 WHICH -0.2785
-3.6735 WHILE -0.2866
-3.8953 WHITE -0.3010
-3.8953 WHITMAN -0.2857
-3.4694 WHO -0.2965
-3.8953 WHOLE -0.2980
-3.1684 WHY -0.2840
-4.3725 WIDE -0.3008
-3.6735 WILD -0.3006
-4.3725 WILDNESS -0.2989
-3.1420 WILL -0.2916
-4.3725 WILLFUL -0.3007
-4.3725 WILLFULLY -0.3010
-4.3725 WILLIAM -0.3010
-4.3725 WILLIAM'S -0.3009
-4.3725 WILLIAMS -0.2858
-4.0714 WILLING -0.2955
-4.3725 WINDOW -0.2858
-3.7704 WISH -0.2799
-4.3725 WISHED -0.3007
-4.3725 WISHING -0.2954
-2.5400 WITH -0.2556
-3.5274 WITHIN -0.2920
-3.6735 WITHOUT -0.2943
-4.3725 WOLF -0.3010
-4.3725 WOMAN -0.2984
-4.3725 WON -0.3003
-4.3725 WON'T -0.3006
-4.3725 WONDERFUL -0.3010
-4.3725 WONDERFULLY -0.3009
-4.0714 WONDERLAND -0.2858
-3.8953 WOODS -0.2854
-4.3725 WOODSHOP -0.3010
-3.8953 WORDS -0.2811
-2.7927 WORK -0.2526
-4.0714 WORKED -0.2992
-4.3725 WORKERS -0.3010
-3.1964 WORKING -0.2889
-3.3311 WORKS -0.2936
-3.1172 WORLD -0.2559
-4.3725 WORTH -0.3010
-3.1420 WOULD -0.2967
-4.0714 WOUNDS -0.2968
-4.3725 WRAP -0.2992
-4.0714 WRAPS -0.2856
-4.0714 WRESTLING -0.3009
-4.3725 WRITE -0.3010
-4.0714 WRITER -0.2799
-3.5274 WRITING -0.2838
-4.3725 WRITINGS -0.3010
-4.3725 X -0.3010
-4.0714 YALE -0.2857
-3.8953 YEAH -0.2997
-3.8953 YEAR -0.2950
-3.7704 YEARS -0.2795
-3.1964 YET -0.2842
-2.3118 YOU -0.2441
-4.3725 YOU'LL -0.3010
-3.7704 YOU'RE -0.2997
-3.8953 YOUNG -0.3010
-4.3725 YOUNGER -0.2858
-2.9923 YOUR -0.2977
-3.3725 YOURSELF -0.2799
-4.3725 ZERO -0.3010
-4.0714 ZONE -0.3008
-4.3725 ZOO -0.2858

\2-grams:
-1.0000 00 133 0.0000
-1.0000 00 135 0.0000
-1.0000 00 136 0.0000
-1.0000 00 139 0.0000
-1.0000 00 AM -0.2942
-0.3010 0132 11023 0.0000
-0.3010 02 08 0.0000
-0.3010 0534 4793 0.0000
-0.3010 06329551 21822051779645 0.0000
-0.3010 08 </s> -0.3010
-0.6021 09 09 -0.1761
-0.6021 09 </s> -0.3010
-1.0000 1 40 0.0000
-1.0000 1 50 0.0000
-1.0000 1 800 0.0000
-1.0000 1 I -0.2843
-1.0000 1 WORK -0.2894
-0.3010 10 30 -0.1761
-0.4771 11 00 -0.2041
-0.7782 11 30 -0.1761
-0.3010 11023 11599 0.0000
-0.3010 11599 </s> -0.3010
-0.3010 12 20 -0.1761
-0.3010 122000661 0132 0.0000
-0.3010 125 77 0.0000
-0.6021 13 1 -0.2553
-0.6021 13 YEAR -0.2218
-0.3010 130 63 0.0000
-0.3010 1313 1320 0.0000
-0.3010 1320 BEFORE -0.2788
-0.3010 133 77 0.0000
-0.3010 135 73 0.0000
-0.3010 136 72 0.0000
-0.3010 139 96 0.0000
-0.3010 14 1 -0.2553
-0.3010 142 80 0.0000
-0.6021 144 85 0.0000
-0.6021 144 95 0.0000
-0.3010 15 AM -0.2942
-0.3010 150 77 0.0000
-0.3010 156 87 0.0000
-0.3010 1627 </s> -0.3010
-0.3010 1964 NOT -0.2973
-0.3010 1980 S -0.1761
-1.2041 2 12 0.0000
-1.2041 2 8 -0.1761
-1.2041 2 GLOM 0.0000
-1.2041 2 I -0.2989
-1.2041 2 PROBLEMS -0.2430
-1.2041 2 SURGERIES 0.0000
-1.2041 2 WOODSHOP 0.0000
-1.2041 2 X 0.0000
-0.6021 20 PM -0.2632
-0.6021 20 TH -0.1761
-0.3010 2004 READ -0.2218
-0.7782 2006 </s> -0.3010
-0.7782 2006 SUMMER -0.2218
-0.7782 2006 UNDER -0.1761
-0.3010 21822051779645 </s> -0.3010
-0.3010 22 MO 0.0000
-0.3010 227 51 0.0000
-0.3010 24 7 -0.2041
-0.3010 2524 </s> -0.3010
-0.3010 255 VAF -0.2553
-0.3010 26 9 0.0000
-0.6021 30 125 0.0000
-0.6021 30 150 0.0000
-0.7782 4 00 -0.2553
-0.7782 4 2 -0.2730
-0.7782 4 26 0.0000
-0.3010 40 PM -0.2632
-0.3010 416 </s> -0.3010
-0.3010 418 09 -0.1761
-0.3010 4217 6613 0.0000
-0.3010 4793 9390 0.0000
-0.3010 4813 </s> -0.3010
-0.3010 499 1627 0.0000
-0.3010 5 2 -0.2730
-0.3010 50 PM -0.2632
-0.3010 51 4813 0.0000
-0.3010 5329 0534 0.0000
-0.3010 5350290 227 0.0000
-0.3010 5657 7155 -0.1761
-0.3010 614 499 0.0000
-0.3010 619 733 0.0000
-0.3010 63 </s> -0.3010
-0.3010 6613 5657 0.0000
-1.0000 7 13 -0.1761
-1.0000 7 1313 0.0000
-1.0000 7 14 0.0000
-0.6990 7 </s> -0.3010
-0.6021 7155 418 0.0000
-0.6021 7155 7155 -0.1761
-0.3010 72 </s> -0.3010
-0.3010 73 </s> -0.3010
-0.3010 733 9556 0.0000
-0.3010 77 </s> -0.3010
-0.6021 8 00 -0.2041
-0.9031 8 LINEAR -0.2430
-0.9031 8 TH -0.1761
-0.3010 80 </s> -0.3010
-0.3010 800 863 0.0000
-0.3010 81 THE -0.2993
-0.3010 85 </s> -0.3010
-0.3010 850 02 0.0000
-0.3010 863 2524 0.0000
-0.3010 87 </s> -0.3010
-0.3010 9 15 0.0000
-0.3010 9380 850 0.0000
-0.3010 9390 9380 0.0000
-0.3010 95 </s> -0.3010
-0.3010 9556 </s> -0.3010
-0.3010 96 </s> -0.3010
-3.2122 <s> 1 -0.2553
-3.2122 <s> 122000661 0.0000
-3.2122 <s> 2 -0.2730
-2.9112 <s> 2006 -0.1249
-2.9112 <s> 4 -0.1249
-3.2122 <s> 4217 0.0000
-3.2122 <s> 5 0.0000
-3.2122 <s> 5329 0.0000
-2.9112 <s> 7 -0.2041
-1.9817 <s> A -0.2751
-3.2122 <s> ABBY -0.2218
-3.2122 <s> ACTIVITY -0.2430
-3.2122 <s> AFTER -0.2730
-3.2122 <s> AIMING 0.0000
-3.2122 <s> ALCHEMY -0.1761
-3.2122 <s> ALIGNMENT 0.0000
-2.5132 <s> ALL -0.2679
-3.2122 <s> ALLEGATIONS 0.0000
-3.2122 <s> AMERICA 0.0000
-3.2122 <s> AMERICANA 0.0000
-2.5132 <s> AN -0.2771
-3.2122 <s> ANARCHO 0.0000
-2.7351 <s> AND -0.2839
-3.2122 <s> ANOTHER -0.2730
-2.9112 <s> ARE -0.2843
-3.2122 <s> ARRIVE 0.0000
-2.6101 <s> ART -0.2804
-3.2122 <s> ARTISTS -0.2688
-3.2122 <s> AS -0.2971
-2.9112 <s> AT -0.2564
-3.2122 <s> ATTENTION -0.1761
-3.2122 <s> AUTOBIOGRAPHICAL -0.2218
-3.2122 <s> AUTOBIOGRAPHY 0.0000
-3.2122 <s> AVERAGE 0.0000
-3.2122 <s> BACK -0.2788
-3.2122 <s> BARTER 0.0000
-3.2122 <s> BARTHES 0.0000
-2.7351 <s> BE -0.2890
-3.2122 <s> BEATING 0.0000
-3.2122 <s> BEAUTIFUL -0.2218
-3.2122 <s> BEFORE -0.2788
-2.7351 <s> BEING -0.2478
-3.2122 <s> BEUYS 0.0000
-3.2122 <s> BILLIONS 0.0000
-3.2122 <s> BLACK 0.0000
-3.2122 <s> BLENDING 0.0000
-3.2122 <s> BLIND -0.2553
-3.2122 <s> BLUE 0.0000
-3.2122 <s> BODIES 0.0000
-3.2122 <s> BORDERS 0.0000
-3.2122 <s> BOSTON 0.0000
-3.2122 <s> BOTH -0.2218
-2.7351 <s> BOYS -0.1761
-3.2122 <s> BRAVERY -0.1761
-3.2122 <s> BRUTALITY 0.0000
-2.6101 <s> BUT -0.2368
-3.2122 <s> CAN -0.2951
-3.2122 <s> CANONS 0.0000
-3.2122 <s> CARE -0.2041
-3.2122 <s> CARL 0.0000
-3.2122 <s> CAST 0.0000
-3.2122 <s> CAUTION -0.1761
-3.2122 <s> CENTER -0.1761
-3.2122 <s> CHAIN -0.2218
-3.2122 <s> CHAMELEON 0.0000
-3.2122 <s> CLASS -0.2688
-3.2122 <s> CLEAN -0.2553
-3.2122 <s> COARSEN 0.0000
-3.2122 <s> COMEDIC 0.0000
-3.2122 <s> COMMENT 0.0000
-3.2122 <s> COMPUTATION -0.1761
-3.2122 <s> COMPUTERS -0.1761
-3.2122 <s> CONFUSING 0.0000
-3.2122 <s> CONTEMPORARY -0.2218
-3.2122 <s> CONVINCE 0.0000
-3.2122 <s> COPYING 0.0000
-3.2122 <s> COSMOLINE 0.0000
-3.2122 <s> CRAPLAB 0.0000
-3.2122 <s> CRAWL -0.1761
-2.9112 <s> CREATION -0.1249
-3.2122 <s> CRITICAL -0.1461
-3.2122 <s> CROW 0.0000
-2.9112 <s> CURIOUS -0.1249
-3.2122 <s> CYBERPUNK 0.0000
-3.2122 <s> D -0.1761
-3.2122 <s> DAD -0.2553
-3.2122 <s> DADA 0.0000
-3.2122 <s> DADAENGINE 0.0000
-3.2122 <s> DATA 0.0000
-3.2122 <s> DEAD 0.0000
-3.2122 <s> DEATH -0.2218
-3.2122 <s> DEEP -0.1761
-3.2122 <s> DESIRE -0.2041
-3.2122 <s> DEVELOP -0.2430
-3.2122 <s> DEVELOPING -0.1761
-3.2122 <s> DO -0.2950
-2.9112 <s> DON'T -0.2869
-3.2122 <s> DONALD -0.1761
-3.2122 <s> E 0.0000
-2.6101 <s> EAT -0.1249
-3.2122 <s> EATING 0.0000
-3.2122 <s> ECHO 0.0000
-3.2122 <s> ED 0.0000
-3.2122 <s> ELECTIVE 0.0000
-3.2122 <s> ELECTRICITY -0.2218
-3.2122 <s> EMPTY -0.2218
-3.2122 <s> ENERGY -0.2825
-3.2122 <s> ENGINES -0.1761
-3.2122 <s> ENTIRELY -0.2218
-3.2122 <s> EVERY -0.2632
-3.2122 <s> EXPANSION 0.0000
-3.2122 <s> EXPERIMENTAL 0.0000
-3.2122 <s> EXPERIMENTATION -0.2218
-3.2122 <s> F 0.0000
-3.2122 <s> FACULTY 0.0000
-3.2122 <s> FALSE 0.0000
-3.2122 <s> FANTASY -0.1761
-2.9112 <s> FATALISTIC 0.0000
-3.2122 <s> FEEL -0.2596
-3.2122 <s> FILM 0.0000
-2.9112 <s> FIND -0.2430
-3.2122 <s> FITTING 0.0000
-3.2122 <s> FLIRTING 0.0000
-2.9112 <s> FOCUS -0.0969
-2.7351 <s> FOLD -0.1648
-3.2122 <s> FOR -0.2975
-3.2122 <s> FORWARD -0.2430
-3.2122 <s> FREE -0.2430
-3.2122 <s> FRESHMAN 0.0000
-3.2122 <s> FRI 0.0000
-2.7351 <s> FUCK -0.1249
-3.2122 <s> FUCKED 0.0000
-3.2122 <s> GAS 0.0000
-2.9112 <s> GET -0.2704
-3.2122 <s> GOODMACHINES 0.0000
-3.2122 <s> GOODNIGHT 0.0000
-3.2122 <s> GROSSLY 0.0000
-2.9112 <s> HAVE -0.2960
-2.5132 <s> HE -0.2430
-3.2122 <s> HEALTHILY 0.0000
-3.2122 <s> HEIDEGGER 0.0000
-3.2122 <s> HELL -0.1761
-2.7351 <s> HERE -0.1597
-2.9112 <s> HERE'S 0.0000
-3.2122 <s> HIDDEN 0.0000
-3.2122 <s> HOLD -0.2218
-2.4340 <s> HOW -0.2139
-3.2122 <s> HOWEVER 0.0000
-3.2122 <s> HUNDREDS 0.0000
-3.2122 <s> HURTFUL 0.0000
-3.2122 <s> HUSH 0.0000
-3.2122 <s> HYPER 0.0000
-3.2122 <s> HYPERKINETIC 0.0000
-3.2122 <s> HYPNOTIC 0.0000
-1.1788 <s> I -0.0992
-3.2122 <s> I'D 0.0000
-2.0081 <s> I'M -0.1283
-2.6101 <s> I'VE -0.1513
-3.2122 <s> IDENTITY -0.2218
-2.2579 <s> IF -0.1007
-3.2122 <s> II 0.0000
-3.2122 <s> III 0.0000
-3.2122 <s> ILLUSIONS 0.0000
-3.2122 <s> IMAGES -0.2553
-2.9112 <s> IMAGINATION -0.1249
-3.2122 <s> IMMERSION -0.2218
-3.2122 <s> IMPLIES -0.1761
-3.2122 <s> IMPORTANT -0.2688
-3.2122 <s> IMPOSSIBILITY 0.0000
-3.2122 <s> IMPRESSING 0.0000
-2.5132 <s> IN -0.2395
-3.2122 <s> INDISCRIMINATE 0.0000
-3.2122 <s> INFINITY 0.0000
-3.2122 <s> INFORMATION -0.1761
-3.2122 <s> INPUT 0.0000
-3.2122 <s> INSTITUTE 0.0000
-3.2122 <s> INTEGRATED 0.0000
-3.2122 <s> INTEGRATION 0.0000
-3.2122 <s> INTENTIONAL 0.0000
-3.2122 <s> INTENTIONS -0.2218
-3.2122 <s> INVECTIVE 0.0000
-3.2122 <s> INVENTIVENESS 0.0000
-3.2122 <s> INVERTING 0.0000
-3.2122 <s> INVISIBLE 0.0000
-2.7351 <s> IS -0.2966
-2.0361 <s> IT -0.2312
-2.7351 <s> IT'S -0.2553
-2.3671 <s> ITS -0.1829
-3.2122 <s> IV 0.0000
-3.2122 <s> J 0.0000
-3.2122 <s> JAMES 0.0000
-3.2122 <s> JOHN 0.0000
-3.2122 <s> JOIN 0.0000
-3.2122 <s> JOY 0.0000
-3.2122 <s> JUNIOR 0.0000
-3.2122 <s> JUST -0.2872
-3.2122 <s> KEEPING 0.0000
-3.2122 <s> KEITH 0.0000
-3.2122 <s> KETCHUP 0.0000
-3.2122 <s> KURT 0.0000
-3.2122 <s> LACIE 0.0000
-3.2122 <s> LECTURE 0.0000
-2.9112 <s> LET -0.2041
-2.9112 <s> LETS 0.0000
-3.2122 <s> LIBERATING 0.0000
-3.2122 <s> LIFE -0.2872
-3.2122 <s> LIKE -0.2894
-3.2122 <s> LINAM 0.0000
-3.2122 <s> LINES 0.0000
-3.2122 <s> LISTENING 0.0000
-2.9112 <s> LIVING -0.1761
-3.2122 <s> LOG 0.0000
-3.2122 <s> LOOSE -0.2218
-2.9112 <s> LORD 0.0000
-3.2122 <s> MACGYVER 0.0000
-2.7351 <s> MAKE -0.2588
-3.2122 <s> MAKING -0.2632
-3.2122 <s> MANTICORE 0.0000
-3.2122 <s> MATH -0.1761
-3.2122 <s> MATT 0.0000
-3.2122 <s> MAYAN 0.0000
-2.9112 <s> MAYBE -0.2218
-3.2122 <s> ME -0.2961
-3.2122 <s> MEANINGLESS 0.0000
-3.2122 <s> MEDIATION -0.1761
-3.2122 <s> MEI 0.0000
-3.2122 <s> MEN -0.2218
-3.2122 <s> MESSY -0.2218
-3.2122 <s> MIDDLE 0.0000
-3.2122 <s> MILLIONS 0.0000
-3.2122 <s> MINIMAL 0.0000
-3.2122 <s> MISPLACED 0.0000
-3.2122 <s> MODELS -0.2430
-3.2122 <s> MON 0.0000
-3.2122 <s> MONOLITHIC 0.0000
-2.7351 <s> MORIAH -0.0969
-3.2122 <s> MOTHERFUCKERS 0.0000
-2.6101 <s> MUSIC -0.1249
-2.5132 <s> MY -0.2765
-3.2122 <s> NARCISSISTIC 0.0000
-3.2122 <s> NATALIE -0.2430
-3.2122 <s> NEVER -0.2632
-2.7351 <s> NO -0.2576
-3.2122 <s> NOMART 0.0000
-3.2122 <s> NORMATIVE 0.0000
-3.2122 <s> NOT -0.2973
-3.2122 <s> NURTURE 0.0000
-3.2122 <s> NUZZLE 0.0000
-2.6101 <s> OF -0.2629
-2.7351 <s> OH -0.0969
-3.2122 <s> OIL -0.1761
-3.2122 <s> OK -0.1761
-3.2122 <s> ONCE 0.0000
-2.9112 <s> ONE -0.2472
-3.2122 <s> ONES 0.0000
-3.2122 <s> ONTOARCHEOLOGY 0.0000
-3.2122 <s> OPEN -0.2788
-3.2122 <s> OPERATING -0.2218
-3.2122 <s> OPERATIONAL 0.0000
-2.9112 <s> OR -0.2903
-3.2122 <s> ORANGE 0.0000
-3.2122 <s> ORIGIN 0.0000
-2.9112 <s> OUTBOUND 0.0000
-3.2122 <s> OUTPUT -0.1761
-3.2122 <s> OVER -0.2825
-3.2122 <s> PAINTING -0.2852
-2.7351 <s> PART -0.0872
-3.2122 <s> PATERNITY 0.0000
-3.2122 <s> PEOPLE -0.2881
-3.2122 <s> PESSIMISM 0.0000
-3.2122 <s> PHYSICS 0.0000
-3.2122 <s> PLACATE 0.0000
-3.2122 <s> PLACE -0.2730
-3.2122 <s> PLANE 0.0000
-3.2122 <s> PLURALITY 0.0000
-3.2122 <s> POLICE 0.0000
-3.2122 <s> POLYMORPHOUSLY 0.0000
-3.2122 <s> POOLING 0.0000
-3.2122 <s> POST -0.2218
-3.2122 <s> POWERPLUS 0.0000
-3.2122 <s> PREVIOUS 0.0000
-3.2122 <s> PROACTIVE 0.0000
-3.2122 <s> PROBABILISTIC 0.0000
-3.2122 <s> PROCESS -0.2139
-2.9112 <s> PROGRAMMING -0.2341
-3.2122 <s> PROLIFERATION -0.1761
-3.2122 <s> PSEUDO 0.0000
-3.2122 <s> PUT -0.2304
-2.9112 <s> PUTRESCENT 0.0000
-3.2122 <s> QUIT 0.0000
-3.2122 <s> RACCOON 0.0000
-3.2122 <s> RAISING 0.0000
-3.2122 <s> RE -0.1761
-3.2122 <s> REACTION -0.1761
-3.2122 <s> REALITY -0.2688
-3.2122 <s> RECAPTURE 0.0000
-2.9112 <s> REFERENCE 0.0000
-3.2122 <s> RELAPSE 0.0000
-3.2122 <s> RELEASED 0.0000
-3.2122 <s> REMACHINING 0.0000
-3.2122 <s> RESISTANCE -0.1761
-3.2122 <s> REVERENCE 0.0000
-3.2122 <s> RICHARD 0.0000
-2.9112 <s> ROBERT -0.2041
-3.2122 <s> RON 0.0000
-2.9112 <s> RUN -0.1249
-3.2122 <s> RUNNING -0.1761
-2.9112 <s> SARAH 0.0000
-2.9112 <s> SAT 0.0000
-3.2122 <s> SCHOOL -0.2730
-3.2122 <s> SCRIPT 0.0000
-3.2122 <s> SEARCH -0.2218
-3.2122 <s> SEASHELL 0.0000
-3.2122 <s> SEEING -0.2553
-3.2122 <s> SEEK 0.0000
-2.9112 <s> SELF -0.2762
-3.2122 <s> SENSE -0.2341
-3.2122 <s> SHAMANISM -0.1761
-3.2122 <s> SHE -0.2788
-3.2122 <s> SHE'D 0.0000
-3.2122 <s> SHELDON -0.1761
-3.2122 <s> SHINY 0.0000
-3.2122 <s> SHIT -0.2840
-3.2122 <s> SIGN -0.1761
-3.2122 <s> SLIM 0.0000
-2.9112 <s> SLOW 0.0000
-3.2122 <s> SNAPSHOT 0.0000
-3.2122 <s> SNIFF 0.0000
-2.3671 <s> SO -0.2478
-3.2122 <s> SOME -0.2846
-3.2122 <s> SOMETHING -0.2932
-2.5132 <s> SOMETIMES -0.0512
-3.2122 <s> SPIN -0.1761
-3.2122 <s> SPITTING 0.0000
-3.2122 <s> SPORTING 0.0000
-3.2122 <s> SPRING 0.0000
-3.2122 <s> STATISTICAL 0.0000
-3.2122 <s> STEPHEN 0.0000
-3.2122 <s> STOP 0.0000
-3.2122 <s> STRONG -0.2218
-3.2122 <s> STUDENT -0.1761
-3.2122 <s> STUDIES 0.0000
-3.2122 <s> SUCH -0.1761
-3.2122 <s> SUHA 0.0000
-3.2122 <s> SWEET 0.0000
-2.7351 <s> SYNTHESIS 0.0000
-3.2122 <s> SYSTEMS -0.2218
-3.2122 <s> TALK -0.2430
-3.2122 <s> TANNER'S 0.0000
-3.2122 <s> TENS 0.0000
-2.9112 <s> TEXT -0.2341
-2.6101 <s> THAT -0.2883
-2.9112 <s> THAT'S 0.0000
-3.2122 <s> THATS -0.2553
-1.5494 <s> THE -0.2563
-2.9112 <s> THEIR -0.2632
-3.2122 <s> THEN -0.2852
-2.5132 <s> THERE -0.1684
-3.2122 <s> THERE'S -0.1761
-3.2122 <s> THESE -0.2863
-2.9112 <s> THEY -0.2452
-3.2122 <s> THEY'RE -0.2218
-3.2122 <s> THINGS -0.2730
-2.7351 <s> THINKING -0.2430
-2.2579 <s> THIS -0.2309
-3.2122 <s> THOUGHTS -0.2553
-3.2122 <s> THOUSANDS 0.0000
-3.2122 <s> THREE -0.2218
-3.2122 <s> THROUGH -0.2872
-3.2122 <s> THROWING 0.0000
-3.2122 <s> TICKLE 0.0000
-3.2122 <s> TILL 0.0000
-3.2122 <s> TIME -0.2788
-3.2122 <s> TITLES 0.0000
-2.3671 <s> TO -0.2900
-3.2122 <s> TOTAL -0.2632
-3.2122 <s> TOYOTA 0.0000
-3.2122 <s> TRANSFERENCE -0.1761
-3.2122 <s> TRANSFORMATIONS -0.1761
-3.2122 <s> TRASMUTATION 0.0000
-3.2122 <s> TRILLIONS 0.0000
-3.2122 <s> TRISTAN 0.0000
-3.2122 <s> TRULY -0.2430
-3.2122 <s> TRYING 0.0000
-3.2122 <s> TUES 0.0000
-3.2122 <s> UNDERLYING -0.2218
-2.9112 <s> UNFORTUNATELY 0.0000
-3.2122 <s> UNRECONSTRUCTED 0.0000
-3.2122 <s> UNSQUEAMISHNESS 0.0000
-3.2122 <s> USING -0.1249
-3.2122 <s> UTOPIAN -0.1761
-3.2122 <s> VALUE 0.0000
-3.2122 <s> VERDANT 0.0000
-3.2122 <s> VERONIKA -0.1761
-3.2122 <s> VIAGRA 0.0000
-3.2122 <s> VISUAL -0.1761
-3.2122 <s> VVV 0.0000
-3.2122 <s> WALKING 0.0000
-3.2122 <s> WALT 0.0000
-3.2122 <s> WALTER 0.0000
-3.2122 <s> WARHOL 0.0000
-3.2122 <s> WARNING 0.0000
-2.6101 <s> WE -0.2071
-2.9112 <s> WE'RE -0.1249
-3.2122 <s> WED 0.0000
-2.7351 <s> WELL -0.1761
-2.5132 <s> WHAT -0.2460
-2.9112 <s> WHATS 0.0000
-2.7351 <s> WHEN -0.1761
-3.2122 <s> WHENEVER 0.0000
-2.9112 <s> WHERE -0.2499
-3.2122 <s> WHILE -0.2553
-2.9112 <s> WHITE -0.1249
-2.9112 <s> WHO -0.2109
-2.5132 <s> WHY -0.2109
-3.2122 <s> WIDE 0.0000
-3.2122 <s> WILDNESS 0.0000
-3.2122 <s> WILLFUL 0.0000
-3.2122 <s> WILLIAM 0.0000
-3.2122 <s> WOLF 0.0000
-3.2122 <s> WONDERLAND 0.0000
-3.2122 <s> WORK -0.2953
-2.9112 <s> WORKING -0.2711
-3.2122 <s> YEAH -0.2218
-2.0661 <s> YOU -0.2018
-3.2122 <s> YOU'RE -0.2430
-3.2122 <s> YOUNG -0.1249
-2.7143 A 06329551 0.0000
-2.7143 A </s> -0.3010
-2.7143 A BAD -0.2430
-2.7143 A BASEBALL 0.0000
-2.7143 A BETRAYAL 0.0000
-2.7143 A BETTER -0.2430
-2.7143 A BINGE 0.0000
-2.7143 A BIT -0.2430
-2.7143 A BLAH -0.1249
-2.7143 A BODY -0.2808
-2.7143 A BOOTH 0.0000
-2.7143 A BORE 0.0000
-2.7143 A BOXER 0.0000
-2.7143 A BOXING 0.0000
-2.7143 A BRAIN 0.0000
-2.7143 A BREAK 0.0000
-2.2372 A BURDEN 0.0000
-2.7143 A CALL -0.2688
-2.7143 A CANVAS 0.0000
-2.7143 A CENTRAL -0.2430
-2.4133 A CERTAIN -0.2218
-2.7143 A CHALLENGE -0.1761
-2.7143 A CHAOTIC -0.2430
-2.4133 A CHILD 0.0000
-2.7143 A CIRCUIT -0.2430
-2.7143 A COMPLETELY 0.0000
-2.7143 A CONCLUSIVE 0.0000
-2.7143 A CONFIDENCE 0.0000
-2.7143 A CONSCIOUS -0.1761
-2.7143 A CONSTRAINT -0.2218
-2.7143 A CRITICAL -0.1461
-2.7143 A DECISION 0.0000
-2.4133 A DEEP -0.1761
-2.4133 A DEER 0.0000
-2.4133 A DEFINITIVE 0.0000
-2.7143 A DEMAND 0.0000
-2.7143 A DETERMINISTIC -0.1761
-2.7143 A DIRECT -0.2430
-2.4133 A DISCIPLINE -0.1249
-2.7143 A DOG -0.2632
-2.7143 A DREAM -0.2218
-2.7143 A DUMB 0.0000
-2.7143 A FACILITY -0.1761
-2.7143 A FACTORY -0.1249
-2.7143 A FARADAY 0.0000
-2.7143 A FEEDBACK -0.1761
-2.7143 A FEELING -0.2430
-2.7143 A FIERCE 0.0000
-2.7143 A FILE 0.0000
-2.4133 A FORM -0.2730
-2.7143 A GESTURAL 0.0000
-2.7143 A GLOWING 0.0000
-2.7143 A GOAL 0.0000
-1.8692 A GOOD -0.2065
-2.7143 A GREAT -0.2553
-2.7143 A HAM 0.0000
-2.7143 A HAMMER 0.0000
-2.7143 A HAND -0.2430
-2.7143 A HARD -0.2218
-2.7143 A HEALING 0.0000
-2.7143 A HEAVY -0.1761
-2.7143 A HIGHER 0.0000
-2.4133 A HOLE -0.1249
-2.4133 A HORSE -0.1249
-2.7143 A HOUSE -0.2218
-2.7143 A HUMAN -0.2553
-2.7143 A HYPERSATURATE 0.0000
-2.7143 A HYPERTEXT 0.0000
-2.4133 A KEY -0.1249
-2.2372 A KIND 0.0000
-2.7143 A LARGE 0.0000
-2.7143 A LECTURE 0.0000
-2.7143 A LESS -0.2218
-2.7143 A LIST 0.0000
-2.0154 A LITTLE -0.1597
-2.7143 A LOST 0.0000
-2.0154 A LOT 0.0000
-2.7143 A MACHINE -0.2762
-2.7143 A MAJOR -0.2430
-2.7143 A MAN -0.2553
-2.7143 A MATH -0.1761
-2.7143 A MATTER -0.2218
-2.4133 A MEANINGFUL -0.1761
-2.7143 A MECHANIC 0.0000
-2.7143 A MEMORY -0.2430
-2.7143 A MESSY -0.2218
-2.7143 A MIKE 0.0000
-2.7143 A MIX 0.0000
-2.4133 A MORE -0.2788
-2.7143 A MOVING 0.0000
-2.7143 A NARRATION 0.0000
-2.7143 A NET 0.0000
-2.2372 A NEW -0.2374
-2.7143 A NUMBER -0.1761
-2.7143 A PACIFIER 0.0000
-2.7143 A PAINTED -0.1761
-2.7143 A PAINTING -0.2852
-2.7143 A PARADE 0.0000
-2.7143 A PART -0.1597
-2.7143 A PARTICULAR -0.2430
-2.7143 A PERKINS -0.1761
-2.4133 A PERSON -0.2041
-2.7143 A PERSONALITY 0.0000
-2.7143 A PERSUASIVE -0.1761
-2.2372 A PHYSICAL -0.1963
-2.2372 A PIECE -0.1963
-2.7143 A PILLOW 0.0000
-2.7143 A PILOT 0.0000
-2.2372 A PLACE -0.1383
-2.7143 A PLASTIC 0.0000
-2.7143 A POSITION 0.0000
-2.7143 A POSITIVE 0.0000
-2.7143 A PREREQUISITE 0.0000
-2.7143 A PRESCRIBED 0.0000
-2.7143 A PRINCIPAL 0.0000
-2.7143 A PROBLEM -0.2688
-2.4133 A PROCESS -0.1891
-2.7143 A PRODUCT -0.1761
-2.4133 A PROGRAM -0.2341
-2.7143 A PROGRAMMATIC -0.1761
-2.4133 A PROJECT -0.2632
-2.7143 A RANGE -0.1761
-2.7143 A REACTION -0.1761
-2.7143 A REAL -0.2863
-2.4133 A REASON -0.0969
-2.7143 A REDECLARATION 0.0000
-2.7143 A REFUGE 0.0000
-2.4133 A REGULAR 0.0000
-2.7143 A RELATIVELY -0.2218
-2.7143 A RELIGIOUS -0.1761
-2.7143 A REMINDER 0.0000
-2.4133 A RESEARCH -0.1761
-2.7143 A RESPONSE 0.0000
-2.7143 A RESPONSIVE 0.0000
-2.7143 A RESULT 0.0000
-2.4133 A REVELATION 0.0000
-2.4133 A RICH -0.1249
-2.7143 A RIDICULOUS 0.0000
-2.7143 A RIFLE 0.0000
-2.7143 A RIGHT -0.2218
-2.7143 A ROBUST 0.0000
-2.7143 A ROMANCE -0.2218
-2.7143 A ROUND 0.0000
-2.4133 A SCIENTIST -0.1761
-2.4133 A SCULPTURAL -0.1249
-2.7143 A SEAMLESS 0.0000
-2.7143 A SECRET -0.1761
-2.7143 A SELF -0.2888
-2.7143 A SENSE -0.2518
-2.1123 A SERIES -0.0792
-2.4133 A SERIOUS -0.1761
-2.7143 A SET -0.2553
-2.7143 A SHOOTING 0.0000
-2.7143 A SHORT -0.1249
-2.7143 A SICKNESS -0.1761
-2.7143 A SIMPLE -0.2218
-2.7143 A SINGLE 0.0000
-2.7143 A SINGULAR 0.0000
-2.7143 A SITE 0.0000
-2.7143 A SMOKER 0.0000
-2.7143 A SOFTWARE -0.2218
-2.7143 A SOLUTION -0.2430
-2.4133 A SONG 0.0000
-2.7143 A SPACE -0.2632
-2.7143 A SPECIFICITY 0.0000
-2.7143 A SQUARE -0.1761
-2.7143 A STORY -0.1963
-2.7143 A STRATEGY 0.0000
-2.4133 A STRONG -0.1249
-2.4133 A STRUCTURE -0.1597
-2.7143 A SUBJECT -0.2218
-2.7143 A SUDDEN 0.0000
-2.7143 A SYSTEM -0.2218
-2.2372 A TAPE -0.0969
-2.7143 A TAUTOLOGICAL 0.0000
-2.7143 A TENT 0.0000
-2.4133 A TERMITE 0.0000
-2.7143 A TRANSMITTER 0.0000
-2.4133 A TRAUMA -0.1249
-2.7143 A TRIANGULAR 0.0000
-2.7143 A TROPE 0.0000
-2.7143 A TRULY -0.2430
-2.7143 A TRUTH -0.2218
-2.7143 A UBIQUITOUS 0.0000
-2.7143 A UNIFIED 0.0000
-2.7143 A UTOPIAN -0.1761
-2.7143 A VERBAL -0.2218
-2.2372 A VERY -0.2285
-2.4133 A VISUAL -0.1761
-2.7143 A WASH 0.0000
-2.7143 A WAY -0.2808
-2.4133 A WHILE -0.2041
-2.7143 A WHOLE -0.2218
-2.7143 A WONDERFUL 0.0000
-2.7143 A WORK -0.2953
-0.3010 ABANDON CRITICAL -0.2553
-0.3010 ABANDONED WITH -0.2978
-0.7782 ABBY FOR -0.2791
-0.7782 ABBY THINKS 0.0000
-0.7782 ABBY THOUGH -0.1461
-0.3010 ABELSON JOSEPH 0.0000
-0.3010 ABERCROMBIE KEEP -0.2632
-0.7782 ABILITY MY -0.2989
-0.4771 ABILITY TO -0.2981
-0.3010 ABLE TO -0.2981
-0.3010 ABORIGINAL WALKABOUT 0.0000
-1.8692 ABOUT </s> -0.3010
-1.8692 ABOUT A -0.3002
-1.8692 ABOUT AN -0.2812
-1.8692 ABOUT ARTISTS -0.2688
-1.8692 ABOUT AT -0.2680
-1.5682 ABOUT BLIND -0.0792
-1.8692 ABOUT CASTING 0.0000
-1.8692 ABOUT FINDING 0.0000
-1.8692 ABOUT FOLKS 0.0000
-1.5682 ABOUT HOW -0.2486
-1.8692 ABOUT IN -0.2995
-1.1703 ABOUT IT -0.2712
-1.8692 ABOUT ITS -0.2906
-1.8692 ABOUT ME -0.2961
-1.2672 ABOUT MY -0.2833
-1.8692 ABOUT OUR -0.2730
-1.8692 ABOUT OWNERSHIP 0.0000
-1.8692 ABOUT PITCHING 0.0000
-1.8692 ABOUT RESPONSIBILITY 0.0000
-1.5682 ABOUT ROMANCE -0.1249
-1.8692 ABOUT SIX 0.0000
-1.1703 ABOUT THE -0.2975
-1.8692 ABOUT THOSE -0.1249
-0.3010 ABOVE ALL -0.2946
-0.3010 ABSOLVED THEM -0.2863
-0.3010 ABSORBED INTO -0.2621
-0.3010 ABSORBING IT -0.2993
-0.3010 ABSTAINING FROM -0.2937
-0.3010 ABSTRACT </s> -0.3010
-0.3010 ACADEMIANS </s> -0.3010
-0.3010 ACADEMIC THINGS -0.2788
-0.3010 ACADEMY TRADITION 0.0000
-0.3010 ACCEPT SCIENCE -0.2730
-0.3010 ACCESSIBLE FORM -0.2872
-0.3010 ACCOUNT </s> -0.3010
-0.3010 ACCRETION OF -0.3004
-0.3010 ACCUMULATING IDEAS -0.2872
-0.3010 ACCUMULATION OF -0.3004
-0.3010 ACHIEVED IN -0.2820
-0.3010 ACHIEVEMENT </s> -0.3010
-0.3010 ACROSS TIME -0.2788
-0.6021 ACT LIKE -0.2972
-0.6021 ACT OF -0.3004
-0.6021 ACTING ON -0.2968
-0.6021 ACTING THEY -0.2858
-1.0000 ACTION </s> -0.3010
-1.0000 ACTION AGENCY 0.0000
-1.0000 ACTION OF -0.3004
-1.0000 ACTION PRESENT -0.2218
-1.0000 ACTION WHEN -0.2109
-0.3010 ACTIONS THE -0.2998
-0.3010 ACTIVISM </s> -0.3010
-0.9031 ACTIVITY </s> -0.3010
-0.9031 ACTIVITY CAN -0.2951
-0.9031 ACTIVITY I -0.2953
-0.9031 ACTIVITY LAST -0.1963
-0.3010 ACTS WHICH -0.2910
-0.6021 ACTUAL BECAUSE -0.2863
-0.6021 ACTUAL EVENT -0.2218
-0.3010 ACTUALIZE AN -0.2812
-0.7782 ACTUALLY A -0.2951
-0.7782 ACTUALLY BE -0.2980
-0.7782 ACTUALLY HIT -0.2632
-0.3010 ACUTELY AWARE 0.0000
-0.6021 ADAM ANY -0.2576
-0.6021 ADAM NO -0.2906
-0.3010 ADAM'S HOUSE -0.2218
-0.3010 ADD ANOTHER -0.2730
-0.3010 ADDED CHALLENGE -0.2430
-0.3010 ADDITION TO -0.3003
-0.6021 ADDRESS OF -0.2709
-0.6021 ADDRESS REALITY -0.2688
-0.3010 ADDS NO -0.2906
-0.3010 ADOLESCENT BOYS -0.2632
-0.3010 ADVANCE BUT -0.2956
-0.3010 ADVICE DON'T -0.2964
-0.3010 AERIAL VIEW 0.0000
-0.6021 AESTHETIC BUT -0.2956
-0.6021 AESTHETIC PHENOMENON 0.0000
-0.3010 AESTHETICIZING FORM -0.2872
-0.3010 AFLEET ALEX 0.0000
-0.6021 AFRAID </s> -0.3010
-0.6021 AFRAID OF -0.2990
-1.2041 AFTER EXPANDING 0.0000
-1.2041 AFTER EXPOSING -0.1761
-0.9031 AFTER IT -0.2976
-0.7270 AFTER THE -0.2993
-1.2041 AFTER YOU -0.2972
-0.3010 AGAIN </s> -0.3010
-0.3010 AGAINST MY -0.2989
-0.3010 AGE </s> -0.3010
-0.3010 AGENCY DISTURBANCE 0.0000
-0.3010 AGO EVERYTHING -0.2808
-0.3010 AGREE TO -0.2959
-0.3010 AHEAD </s> -0.3010
-0.3010 AIM OBLIQUELY 0.0000
-0.3010 AIMING FOR -0.2975
-0.3010 AIMS AND -0.3000
-0.3010 AIRED SOME -0.2846
-0.3010 AL CODA -0.1761
-0.6021 ALCHEMY </s> -0.3010
-0.6021 ALCHEMY OR -0.2957
-0.3010 ALEX WON 0.0000
-0.3010 ALIGNMENT </s> -0.3010
-0.3010 ALIVE THEIR -0.2632
-1.8325 ALL </s> -0.3010
-1.8325 ALL AROUND -0.2663
-1.8325 ALL COME -0.2730
-1.8325 ALL CONFIDENT 0.0000
-1.8325 ALL DISTURBANCES 0.0000
-1.8325 ALL EXPERIENCE -0.2688
-1.8325 ALL FLOWS 0.0000
-1.8325 ALL GOING -0.1996
-1.8325 ALL HAVE -0.2985
-1.8325 ALL I'M -0.2942
-1.8325 ALL IDEAS -0.2730
-1.8325 ALL MEMBERS 0.0000
-1.8325 ALL MOTION 0.0000
-1.8325 ALL MY -0.2989
-1.8325 ALL NO -0.2906
-0.9294 ALL OF -0.2501
-1.8325 ALL OUR -0.2730
-1.8325 ALL RESULTS 0.0000
-1.5315 ALL RIGHT -0.1249
-1.8325 ALL SEE -0.2518
-1.8325 ALL SITUATIONS 0.0000
-1.8325 ALL SUCKLING 0.0000
-1.8325 ALL THE -0.3004
-1.8325 ALL THIS -0.2972
-1.8325 ALL THOSE -0.1249
-1.8325 ALL WORK -0.2591
-0.3010 ALLEGATIONS OF -0.3004
-0.3010 ALLOW ONE -0.2553
-0.3010 ALLUDE TO -0.2996
-0.3010 ALLURE THAT -0.2979
-0.7782 ALMOST IMPOSSIBLE 0.0000
-0.7782 ALMOST JUST -0.2872
-0.7782 ALMOST PHYSICAL -0.2688
-0.6021 ALONE IN -0.2820
-0.6021 ALONE THEN -0.2852
-0.7782 ALREADY A -0.3002
-0.7782 ALREADY EXTERNALIZED 0.0000
-0.7782 ALREADY MADE -0.2808
-0.9031 ALSO BE -0.2920
-0.9031 ALSO I -0.2902
-0.9031 ALSO PERHAPS 0.0000
-0.9031 ALSO WILLING 0.0000
-0.3010 ALTERNATE SORT -0.0414
-1.1461 ALWAYS BEEN -0.2825
-1.1461 ALWAYS CHALLENGING -0.1761
-1.1461 ALWAYS DRAW 0.0000
-1.1461 ALWAYS HAVE -0.2985
-1.1461 ALWAYS MORE -0.2937
-0.8451 ALWAYS ON -0.2924
-1.8062 AM 11 -0.2218
-1.8062 AM 130 0.0000
-1.8062 AM 144 -0.1761
-1.8062 AM 4 -0.2218
-1.8062 AM 8 -0.1761
-1.8062 AM AN -0.2971
-1.8062 AM CAPABLE 0.0000
-1.8062 AM CONFIDENT 0.0000
-1.8062 AM DOING -0.2730
-1.8062 AM DRIVEN 0.0000
-1.8062 AM DRUNK 0.0000
-1.8062 AM FROM -0.2937
-1.8062 AM FRUSTRATED 0.0000
-1.8062 AM GOOD -0.2511
-1.8062 AM HAPPY -0.2218
-1.2041 AM I -0.2982
-1.8062 AM INTERESTED -0.0580
-1.8062 AM LOOKING -0.1761
-1.3291 AM NOT -0.2898
-1.8062 AM PEEING 0.0000
-1.8062 AM REALLY -0.2872
-1.8062 AM SAD -0.1761
-1.8062 AM SITTING -0.1761
-1.8062 AM SURE -0.1761
-1.8062 AM THE -0.2998
-1.8062 AM TRYING 0.0000
-1.8062 AM USING -0.2218
-0.3010 AMBITION TIME -0.2553
-0.3010 AMBITIONS WAS -0.2900
-0.3010 AMERICA </s> -0.3010
-0.3010 AMERICA'S FINEST 0.0000
-0.6990 AMERICAN ART -0.2846
-1.0000 AMERICAN CEMENT 0.0000
-1.0000 AMERICAN DAUGHTER -0.1249
-1.0000 AMERICAN REVOLUTION 0.0000
-0.3010 AMERICANA </s> -0.3010
-0.3010 AMORPHOUS BLOB 0.0000
-0.3010 AMPLIFIERS FILTERS 0.0000
-2.0492 AN ACCESSIBLE 0.0000
-2.0492 AN ACCRETION 0.0000
-2.0492 AN ACCUMULATION 0.0000
-2.0492 AN ACHIEVEMENT 0.0000
-2.0492 AN ALTERNATE 0.0000
-2.0492 AN AMORPHOUS 0.0000
-2.0492 AN ANTIDOTE 0.0000
-1.7482 AN ART -0.2929
-2.0492 AN ARTIFACT 0.0000
-2.0492 AN ARTIST -0.2430
-2.0492 AN ASSOCIATIVE 0.0000
-2.0492 AN ATHLETIC 0.0000
-2.0492 AN EGO -0.1761
-2.0492 AN ELABORATE -0.1761
-2.0492 AN ELASTIC 0.0000
-2.0492 AN ELEMENT -0.1761
-2.0492 AN EMBOLISM 0.0000
-2.0492 AN EMPTY -0.2218
-2.0492 AN ENDLESS 0.0000
-1.5721 AN ENGINEER -0.1761
-2.0492 AN ENGINEERING -0.2218
-2.0492 AN EQUATION -0.1761
-2.0492 AN EQUIVALENT 0.0000
-2.0492 AN EXPANSIVE 0.0000
-2.0492 AN EXPRESSION -0.1761
-2.0492 AN EXTREME -0.1761
-1.3502 AN IDEA -0.1047
-2.0492 AN IMAGE -0.2218
-2.0492 AN IMPRESSIVE 0.0000
-2.0492 AN IMPULSE 0.0000
-2.0492 AN INDEPENDENT -0.1761
-2.0492 AN INFARCTION 0.0000
-2.0492 AN INFRASTRUCTURE 0.0000
-2.0492 AN INJURY 0.0000
-2.0492 AN INSTITUTION -0.1761
-2.0492 AN INTELLECTUAL -0.2553
-2.0492 AN INTERESTING -0.2688
-2.0492 AN INTERROGATION 0.0000
-2.0492 AN ISLAND 0.0000
-2.0492 AN LOOSE -0.2218
-1.5721 AN OPEN -0.2304
-2.0492 AN OPTOMETRIST 0.0000
-2.0492 AN OUTSIDER 0.0000
-2.0492 AN ULTIMATELY 0.0000
-2.0492 AN UNCOVERABLE 0.0000
-2.0492 AN UNDISCIPLINED 0.0000
-2.0492 AN UTTER 0.0000
-0.3010 ANALOG AND -0.3000
-0.3010 ANALOGY CHAOS -0.1761
-0.7782 ANALYSIS </s> -0.3010
-0.7782 ANALYSIS THESE -0.2937
-0.7782 ANALYSIS THESIS -0.1761
-0.3010 ANALYTICAL ENGINE -0.2430
-0.3010 ANARCHO SYNDICATE 0.0000
-0.3010 ANCHORAGE TEXT -0.2688
-0.6021 ANCHORS BUT -0.2956
-0.6021 ANCHORS OF -0.3004
-2.6435 AND 2 -0.2730
-2.0414 AND A -0.2909
-2.6435 AND ABELSON 0.0000
-2.6435 AND ACTIONS 0.0000
-2.6435 AND AIRED 0.0000
-2.6435 AND ALL -0.2467
-2.6435 AND ALSO -0.2430
-2.6435 AND AM -0.2730
-2.6435 AND AN -0.2971
-2.6435 AND AS -0.2971
-2.6435 AND ATAVISTIC -0.2218
-2.6435 AND ATOMIC 0.0000
-2.6435 AND ATTITUDES 0.0000
-2.6435 AND BIOGRAPHY -0.1761
-2.6435 AND BIOLOGICAL 0.0000
-2.6435 AND BOY -0.2430
-2.6435 AND BRAVERY -0.1761
-2.6435 AND BRING -0.2553
-2.6435 AND BUILDING -0.2218
-2.6435 AND CAPTURING 0.0000
-2.6435 AND CHERISH 0.0000
-2.6435 AND COMPUTATION -0.1761
-2.6435 AND CONTEXT -0.1761
-2.6435 AND COULD -0.2872
-2.6435 AND CRAFT -0.2632
-2.6435 AND CREATIVE 0.0000
-2.6435 AND CREATIVITY -0.1761
-2.6435 AND CRYSTALLINE 0.0000
-2.6435 AND DAUGHTERS 0.0000
-2.3424 AND DEFINE 0.0000
-2.6435 AND DEMONSTRABLE 0.0000
-2.3424 AND DENSE 0.0000
-2.6435 AND DESIRE -0.2041
-2.6435 AND DESIRES -0.1761
-2.6435 AND DIGITAL -0.1761
-2.6435 AND DOING -0.2730
-2.6435 AND DYSTOPIAN 0.0000
-2.6435 AND EAT -0.2632
-2.6435 AND EFFECTS 0.0000
-2.6435 AND ELECTRICITY -0.2218
-2.6435 AND EMBODIED 0.0000
-2.6435 AND EMBRACE 0.0000
-2.6435 AND ENGINEER -0.2730
-2.6435 AND EQUAL' 0.0000
-2.6435 AND EVENT -0.2218
-2.1663 AND EXPAND -0.0969
-2.6435 AND EXPELS 0.0000
-2.6435 AND EXPERIENCE -0.2688
-2.6435 AND EXPRESSES 0.0000
-2.6435 AND FANTASY -0.1761
-2.6435 AND FEDERAL -0.1761
-2.6435 AND FEEL -0.2808
-2.6435 AND FICTION -0.1761
-2.3424 AND FIND -0.2430
-2.6435 AND FINISH 0.0000
-2.6435 AND FLUIDITY 0.0000
-2.3424 AND FOLD -0.2478
-2.6435 AND FOOTBALL 0.0000
-2.6435 AND FORTH -0.1761
-2.6435 AND FROM -0.2937
-2.6435 AND FUCKING -0.2553
-2.6435 AND FUNCTIONAL -0.1761
-2.6435 AND GENERALITY 0.0000
-2.6435 AND GNAW 0.0000
-2.1663 AND GOING -0.2218
-2.6435 AND GRADUAL -0.1761
-2.6435 AND HAIR -0.1761
-2.6435 AND HANDS -0.2430
-2.6435 AND HE -0.2872
-2.6435 AND HEALTH -0.2218
-2.6435 AND HIDE 0.0000
-2.3424 AND HIS -0.2596
-2.6435 AND HOW -0.2808
-1.6892 AND I -0.2356
-2.6435 AND IDENTITY -0.2218
-2.6435 AND IMAGES -0.2553
-2.6435 AND IN -0.2995
-2.6435 AND INADEQUACY 0.0000
-2.6435 AND INFORMATION -0.2632
-2.6435 AND INTELLECTUAL -0.2041
-2.6435 AND INTERESTS -0.2553
-2.6435 AND INTERNALIZE 0.0000
-2.6435 AND INTERPRETATION 0.0000
-2.6435 AND IRRATIONAL 0.0000
-2.6435 AND IS -0.2996
-2.1663 AND IT -0.2488
-2.6435 AND JUXTAPOSITIONS 0.0000
-2.6435 AND LEGIBILITY 0.0000
-2.6435 AND LITERALNESS -0.1761
-2.6435 AND LITERATURE 0.0000
-2.6435 AND LOSING 0.0000
-2.6435 AND MAGNETISM 0.0000
-2.6435 AND MAINTENANCE 0.0000
-2.6435 AND MANIFESTO 0.0000
-2.3424 AND MEANING -0.1761
-2.6435 AND MEETS 0.0000
-2.6435 AND MONEY -0.1761
-2.6435 AND MOVE -0.2553
-2.6435 AND MUCKING 0.0000
-2.6435 AND MY -0.2989
-2.6435 AND MYOPIC 0.0000
-2.6435 AND ON -0.2702
-2.3424 AND ONE -0.2863
-2.6435 AND OPEN -0.2788
-2.6435 AND ORDERS 0.0000
-2.6435 AND OTHERS 0.0000
-2.6435 AND OUT -0.2413
-2.6435 AND OUTSIDE -0.2730
-2.6435 AND OVER -0.2825
-2.1663 AND PAINTING -0.2518
-2.6435 AND PATH 0.0000
-2.6435 AND PENCIL 0.0000
-2.6435 AND PERMANENT -0.1761
-2.6435 AND PERMANENTLY 0.0000
-2.6435 AND PERSON -0.2553
-2.6435 AND POSTMODERN 0.0000
-2.6435 AND PRESENTATION -0.1761
-2.6435 AND PROCESS -0.2808
-2.6435 AND PRODUCTION -0.2632
-2.6435 AND PROGRAM -0.1963
-2.6435 AND PROUD 0.0000
-2.6435 AND PSYCHOLOGICAL 0.0000
-2.6435 AND PUTS -0.1761
-2.6435 AND REALITY -0.2688
-2.6435 AND REASSEMBLING 0.0000
-2.6435 AND RELENTLESSLY 0.0000
-2.6435 AND RESPONSIBLE -0.2218
-2.6435 AND RESTRAINT -0.1761
-2.6435 AND SENIOR 0.0000
-2.3424 AND SO -0.2897
-2.6435 AND SOUGHT 0.0000
-2.6435 AND SPEED -0.2218
-2.6435 AND SPILLAGE -0.1761
-2.6435 AND STATES 0.0000
-2.6435 AND STILL -0.2553
-2.6435 AND STUPID -0.1761
-2.3424 AND TAKE -0.2596
-2.6435 AND TAKEN -0.2218
-2.6435 AND TECHNOLOGY -0.1549
-2.6435 AND TEXT -0.2688
-2.1663 AND THAT -0.2632
-2.6435 AND THATS -0.2041
-1.4973 AND THE -0.2854
-2.6435 AND THEATER -0.1761
-2.6435 AND THEIR -0.2825
-2.3424 AND THEN -0.2688
-2.3424 AND THERE -0.1836
-2.3424 AND THEY -0.2858
-2.6435 AND THINK -0.2906
-2.3424 AND THINKING -0.2430
-2.6435 AND THRUST 0.0000
-2.6435 AND TO -0.2996
-2.6435 AND UNCONSIDERED 0.0000
-2.6435 AND UNDERSTOOD -0.2218
-2.6435 AND UNPROTECTED 0.0000
-2.6435 AND UP -0.2775
-2.6435 AND US -0.2632
-2.6435 AND VALUED 0.0000
-2.6435 AND VESTIBULAR 0.0000
-2.6435 AND WE -0.2888
-2.6435 AND WHAT -0.2798
-2.6435 AND WHERE -0.2499
-2.3424 AND WORDS -0.1249
-2.6435 AND WORK -0.2591
-2.6435 AND WORKS -0.2808
-2.6435 AND WRITING -0.2688
-2.0414 AND YOU -0.2553
-2.6435 AND YOU'LL 0.0000
-2.6435 AND YOUR -0.2919
-0.3010 ANDY'S PANTS -0.1761
-0.3010 ANGLE </s> -0.3010
-0.3010 ANGRY MOTHER 0.0000
-0.3010 ANIMAL </s> -0.3010
-0.3010 ANIMALS </s> -0.3010
-0.3010 ANIMATING TRADITIONAL -0.1461
-0.3010 ANKLE WRAPS 0.0000
-1.2041 ANOTHER CHARACTER -0.2430
-1.2041 ANOTHER DIMENSION -0.2218
-1.2041 ANOTHER FALL 0.0000
-1.2041 ANOTHER NEWMAN 0.0000
-1.2041 ANOTHER PART -0.1597
-1.2041 ANOTHER STAGE 0.0000
-1.2041 ANOTHER TO -0.2981
-1.2041 ANOTHER VERBAL -0.2218
-0.3010 ANSWER THAT -0.2931
-0.7782 ANSWERS EASILY 0.0000
-0.7782 ANSWERS FOR -0.2754
-0.7782 ANSWERS NOT -0.2973
-0.3010 ANTI REFLECTIVE -0.1761
-0.3010 ANTIDOTE TO -0.2937
-0.6021 ANXIETY FOR -0.2975
-0.6021 ANXIETY PARALLEL 0.0000
-1.6232 ANY </s> -0.3010
-1.6232 ANY APPLICATION -0.1761
-1.6232 ANY BLIND -0.0792
-1.6232 ANY FEELINGS -0.1761
-1.6232 ANY IDEA -0.2596
-1.6232 ANY LANGUAGE -0.2688
-1.6232 ANY LIABILITIES -0.1761
-1.0212 ANY MORE -0.2632
-1.1461 ANY ONE -0.2553
-1.6232 ANY PARTICULAR -0.2430
-1.6232 ANY POINT -0.2218
-1.6232 ANY PROFERRED 0.0000
-1.6232 ANY REAL -0.2863
-1.6232 ANY REASON -0.0969
-1.6232 ANY THING -0.2663
-1.6232 ANY VIEWING 0.0000
-0.7782 ANYONE </s> -0.3010
-0.7782 ANYONE DENY -0.2218
-0.7782 ANYONE UNLESS -0.1761
-1.5051 ANYTHING </s> -0.3010
-1.5051 ANYTHING A -0.3002
-1.2041 ANYTHING AND -0.2921
-1.5051 ANYTHING BAD -0.2430
-1.2041 ANYTHING DONE -0.2663
-1.5051 ANYTHING FOR -0.2939
-1.5051 ANYTHING GOOD -0.2915
-1.5051 ANYTHING IT -0.2959
-1.5051 ANYTHING ON -0.2968
-1.5051 ANYTHING RATHER -0.0872
-1.5051 ANYTHING SATISFACTORY 0.0000
-1.5051 ANYTHING TO -0.2952
-1.5051 ANYTHING WAS -0.2956
-1.5051 ANYTHING YET -0.1027
-0.3010 ANYWAY </s> -0.3010
-0.6021 ANYWHERE </s> -0.3010
-0.6021 ANYWHERE IF -0.1946
-0.3010 APART AND -0.2991
-0.3010 APPARENT THAT -0.2995
-0.3010 APPEAR AS -0.2386
-0.3010 APPEARANCE OF -0.3004
-0.3010 APPLIANCE OF -0.3004
-0.6021 APPLICATION </s> -0.3010
-0.6021 APPLICATION OUT -0.2413
-0.3010 APPLIED THAT -0.2995
-0.3010 APPRECIATE ANYTHING -0.2730
-0.3010 APPRECIATION IN -0.2820
-0.3010 APPROACH TO -0.2996
-0.3010 APPROPRIATE EYE -0.2430
-0.3010 APRIL 8 -0.2430
-0.3010 ARCTIC TUNDRA 0.0000
-1.7243 ARE ALL -0.2881
-2.0253 ARE AN -0.2971
-2.0253 ARE AND -0.2921
-1.7243 ARE AT -0.2903
-2.0253 ARE BEING -0.2840
-2.0253 ARE CANCELLED 0.0000
-2.0253 ARE CERTAIN -0.2632
-2.0253 ARE COMING -0.2632
-2.0253 ARE COMMITTING 0.0000
-2.0253 ARE DANGEROUS 0.0000
-2.0253 ARE ENTERING 0.0000
-2.0253 ARE EXPECTED 0.0000
-2.0253 ARE EXTRUDED 0.0000
-2.0253 ARE FED 0.0000
-2.0253 ARE FLEETING 0.0000
-2.0253 ARE INDUCING 0.0000
-2.0253 ARE JUST -0.2872
-2.0253 ARE LIABILITIES -0.1761
-2.0253 ARE LOOKING -0.1761
-1.7243 ARE MADE -0.2596
-2.0253 ARE MARRIED 0.0000
-2.0253 ARE MY -0.2989
-2.0253 ARE NARRATING 0.0000
-2.0253 ARE OBJECTIFIED 0.0000
-2.0253 ARE ON -0.2702
-2.0253 ARE OPEN -0.2788
-1.7243 ARE OPERATING -0.1249
-2.0253 ARE PAINTING -0.2852
-2.0253 ARE PINNED 0.0000
-2.0253 ARE POWERFUL 0.0000
-2.0253 ARE PROBLEMS -0.2430
-2.0253 ARE REALLY -0.2872
-2.0253 ARE SHOWN 0.0000
-1.7243 ARE SO -0.2897
-2.0253 ARE SOMETHING -0.2932
-2.0253 ARE THE -0.2998
-2.0253 ARE THESE -0.2863
-2.0253 ARE TOO -0.2863
-2.0253 ARE TOTALLY -0.2218
-2.0253 ARE TRITE 0.0000
-2.0253 ARE UNAWARE 0.0000
-2.0253 ARE VERY -0.2478
-1.7243 ARE WORKING -0.2553
-1.4232 ARE YOU -0.2934
-0.3010 AREN'T THE -0.3004
-0.3010 ARGUE WITH -0.2978
-0.6021 ARM PUNCHING -0.1761
-0.6021 ARM THERE -0.2953
-0.3010 ARMS AROUND -0.2840
-1.1139 AROUND </s> -0.3010
-1.4150 AROUND EVERYTHING -0.2596
-1.4150 AROUND HERE -0.2762
-1.4150 AROUND I'M -0.2942
-1.4150 AROUND JUST -0.2872
-1.4150 AROUND NOTHING -0.2218
-1.1139 AROUND THE -0.2998
-1.1139 AROUND TO -0.2952
-1.4150 AROUND TOGETHER -0.2304
-1.4150 AROUND WITH -0.2978
-0.3010 AROUSAL SELF -0.2888
-0.3010 ARRANGEMENT AND -0.3000
-0.3010 ARRESTING OR -0.2903
-0.3010 ARRIVE AT -0.2848
-2.0334 ART 2004 0.0000
-1.4314 ART </s> -0.3010
-2.0334 ART ABOUT -0.2951
